digraph Tree {
node [shape=box, style="filled, rounded", color="black", fontname="helvetica"] ;
edge [fontname="helvetica"] ;
0 [label="node #0\nloan_amnt <= 8400.5\nsquared_error = 0.008\nsamples = 45000\nvalue = 0.14", fillcolor="#f9e4d5"] ;
1 [label="node #1\nperson_income <= 46616.5\nsquared_error = 0.004\nsamples = 23603\nvalue = 0.096", fillcolor="#fbede2"] ;
0 -> 1 [labeldistance=2.5, labelangle=45, headlabel="True"] ;
2 [label="node #2\nloan_amnt <= 4349.5\nsquared_error = 0.005\nsamples = 8244\nvalue = 0.142", fillcolor="#f9e4d4"] ;
1 -> 2 ;
3 [label="node #3\nperson_income <= 26557.5\nsquared_error = 0.002\nsamples = 3812\nvalue = 0.094", fillcolor="#fbede3"] ;
2 -> 3 ;
4 [label="node #4\nloan_amnt <= 2321.0\nsquared_error = 0.003\nsamples = 1151\nvalue = 0.138", fillcolor="#fae5d6"] ;
3 -> 4 ;
5 [label="node #5\nperson_income <= 14966.5\nsquared_error = 0.001\nsamples = 447\nvalue = 0.093", fillcolor="#fbede3"] ;
4 -> 5 ;
6 [label="node #6\nloan_amnt <= 1772.0\nsquared_error = 0.001\nsamples = 113\nvalue = 0.132", fillcolor="#fae6d8"] ;
5 -> 6 ;
7 [label="node #7\nloan_amnt <= 1025.0\nsquared_error = 0.001\nsamples = 79\nvalue = 0.115", fillcolor="#fae9dc"] ;
6 -> 7 ;
8 [label="node #8\nperson_income <= 10005.5\nsquared_error = 0.0\nsamples = 22\nvalue = 0.088", fillcolor="#fceee5"] ;
7 -> 8 ;
9 [label="node #9\nloan_status <= 0.5\nsquared_error = 0.0\nsamples = 6\nvalue = 0.11", fillcolor="#fbeade"] ;
8 -> 9 ;
10 [label="node #10\nsquared_error = -0.0\nsamples = 3\nvalue = 0.1", fillcolor="#fbece1"] ;
9 -> 10 ;
11 [label="node #11\nsquared_error = -0.0\nsamples = 3\nvalue = 0.12", fillcolor="#fae8db"] ;
9 -> 11 ;
12 [label="node #12\nloan_amnt <= 711.0\nsquared_error = 0.0\nsamples = 16\nvalue = 0.079", fillcolor="#fcf0e7"] ;
8 -> 12 ;
13 [label="node #13\nsquared_error = 0.0\nsamples = 1\nvalue = 0.05", fillcolor="#fdf5f0"] ;
12 -> 13 ;
14 [label="node #14\nperson_income <= 11528.5\nsquared_error = 0.0\nsamples = 15\nvalue = 0.081", fillcolor="#fcefe7"] ;
12 -> 14 ;
15 [label="node #15\ncredit_score <= 607.0\nsquared_error = 0.0\nsamples = 4\nvalue = 0.092", fillcolor="#fbede3"] ;
14 -> 15 ;
16 [label="node #16\nsquared_error = 0.0\nsamples = 1\nvalue = 0.1", fillcolor="#fbece1"] ;
15 -> 16 ;
17 [label="node #17\nsquared_error = -0.0\nsamples = 3\nvalue = 0.09", fillcolor="#fbeee4"] ;
15 -> 17 ;
18 [label="node #18\nperson_income <= 13327.5\nsquared_error = 0.0\nsamples = 11\nvalue = 0.077", fillcolor="#fcf0e8"] ;
14 -> 18 ;
19 [label="node #19\nsquared_error = 0.0\nsamples = 8\nvalue = 0.08", fillcolor="#fcf0e7"] ;
18 -> 19 ;
20 [label="node #20\nsquared_error = -0.0\nsamples = 3\nvalue = 0.07", fillcolor="#fcf2ea"] ;
18 -> 20 ;
21 [label="node #21\nperson_income <= 8226.5\nsquared_error = 0.001\nsamples = 57\nvalue = 0.126", fillcolor="#fae7d9"] ;
7 -> 21 ;
22 [label="node #22\nloan_amnt <= 1350.0\nsquared_error = 0.0\nsamples = 8\nvalue = 0.166", fillcolor="#f8dfcd"] ;
21 -> 22 ;
23 [label="node #23\nloan_amnt <= 1251.0\nsquared_error = 0.0\nsamples = 5\nvalue = 0.154", fillcolor="#f9e2d1"] ;
22 -> 23 ;
24 [label="node #24\nsquared_error = -0.0\nsamples = 3\nvalue = 0.15", fillcolor="#f9e2d2"] ;
23 -> 24 ;
25 [label="node #25\nsquared_error = -0.0\nsamples = 2\nvalue = 0.16", fillcolor="#f9e0cf"] ;
23 -> 25 ;
26 [label="node #26\nloan_int_rate <= 13.235\nsquared_error = 0.0\nsamples = 3\nvalue = 0.187", fillcolor="#f8dbc7"] ;
22 -> 26 ;
27 [label="node #27\nsquared_error = -0.0\nsamples = 2\nvalue = 0.18", fillcolor="#f8ddc9"] ;
26 -> 27 ;
28 [label="node #28\nsquared_error = 0.0\nsamples = 1\nvalue = 0.2", fillcolor="#f7d9c3"] ;
26 -> 28 ;
29 [label="node #29\nloan_status <= 0.5\nsquared_error = 0.0\nsamples = 49\nvalue = 0.119", fillcolor="#fae8db"] ;
21 -> 29 ;
30 [label="node #30\nloan_int_rate <= 10.77\nsquared_error = 0.0\nsamples = 18\nvalue = 0.103", fillcolor="#fbebe0"] ;
29 -> 30 ;
31 [label="node #31\nloan_int_rate <= 7.1\nsquared_error = 0.0\nsamples = 11\nvalue = 0.098", fillcolor="#fbece2"] ;
30 -> 31 ;
32 [label="node #32\nsquared_error = 0.0\nsamples = 1\nvalue = 0.08", fillcolor="#fcf0e7"] ;
31 -> 32 ;
33 [label="node #33\nloan_amnt <= 1425.0\nsquared_error = 0.0\nsamples = 10\nvalue = 0.1", fillcolor="#fbece1"] ;
31 -> 33 ;
34 [label="node #34\nloan_int_rate <= 7.305\nsquared_error = 0.0\nsamples = 8\nvalue = 0.097", fillcolor="#fbece2"] ;
33 -> 34 ;
35 [label="node #35\nsquared_error = 0.0\nsamples = 1\nvalue = 0.09", fillcolor="#fbeee4"] ;
34 -> 35 ;
36 [label="node #36\nloan_int_rate <= 10.585\nsquared_error = 0.0\nsamples = 7\nvalue = 0.099", fillcolor="#fbece1"] ;
34 -> 36 ;
37 [label="node #37\nsquared_error = 0.0\nsamples = 6\nvalue = 0.1", fillcolor="#fbece1"] ;
36 -> 37 ;
38 [label="node #38\nsquared_error = 0.0\nsamples = 1\nvalue = 0.09", fillcolor="#fbeee4"] ;
36 -> 38 ;
39 [label="node #39\nsquared_error = 0.0\nsamples = 2\nvalue = 0.11", fillcolor="#fbeade"] ;
33 -> 39 ;
40 [label="node #40\ncredit_score <= 623.5\nsquared_error = 0.0\nsamples = 7\nvalue = 0.11", fillcolor="#fbeade"] ;
30 -> 40 ;
41 [label="node #41\nsquared_error = 0.0\nsamples = 2\nvalue = 0.12", fillcolor="#fae8db"] ;
40 -> 41 ;
42 [label="node #42\nperson_emp_exp <= 1.0\nsquared_error = 0.0\nsamples = 5\nvalue = 0.106", fillcolor="#fbebdf"] ;
40 -> 42 ;
43 [label="node #43\nperson_income <= 11497.5\nsquared_error = 0.0\nsamples = 3\nvalue = 0.103", fillcolor="#fbebe0"] ;
42 -> 43 ;
44 [label="node #44\nsquared_error = 0.0\nsamples = 1\nvalue = 0.11", fillcolor="#fbeade"] ;
43 -> 44 ;
45 [label="node #45\nsquared_error = 0.0\nsamples = 2\nvalue = 0.1", fillcolor="#fbece1"] ;
43 -> 45 ;
46 [label="node #46\nsquared_error = 0.0\nsamples = 2\nvalue = 0.11", fillcolor="#fbeade"] ;
42 -> 46 ;
47 [label="node #47\nperson_income <= 12443.0\nsquared_error = 0.0\nsamples = 31\nvalue = 0.129", fillcolor="#fae6d8"] ;
29 -> 47 ;
48 [label="node #48\nloan_amnt <= 1516.5\nsquared_error = 0.0\nsamples = 14\nvalue = 0.137", fillcolor="#fae5d6"] ;
47 -> 48 ;
49 [label="node #49\nloan_intent_VENTURE <= 0.5\nsquared_error = 0.0\nsamples = 8\nvalue = 0.132", fillcolor="#fae6d7"] ;
48 -> 49 ;
50 [label="node #50\ncredit_score <= 679.0\nsquared_error = 0.0\nsamples = 6\nvalue = 0.128", fillcolor="#fae6d9"] ;
49 -> 50 ;
51 [label="node #51\nperson_emp_exp <= 1.5\nsquared_error = 0.0\nsamples = 5\nvalue = 0.126", fillcolor="#fae7d9"] ;
50 -> 51 ;
52 [label="node #52\nsquared_error = 0.0\nsamples = 2\nvalue = 0.12", fillcolor="#fae8db"] ;
51 -> 52 ;
53 [label="node #53\nsquared_error = 0.0\nsamples = 3\nvalue = 0.13", fillcolor="#fae6d8"] ;
51 -> 53 ;
54 [label="node #54\nsquared_error = -0.0\nsamples = 1\nvalue = 0.14", fillcolor="#f9e4d5"] ;
50 -> 54 ;
55 [label="node #55\nperson_emp_exp <= 8.0\nsquared_error = 0.0\nsamples = 2\nvalue = 0.145", fillcolor="#f9e3d4"] ;
49 -> 55 ;
56 [label="node #56\nsquared_error = 0.0\nsamples = 1\nvalue = 0.14", fillcolor="#f9e4d5"] ;
55 -> 56 ;
57 [label="node #57\nsquared_error = -0.0\nsamples = 1\nvalue = 0.15", fillcolor="#f9e2d2"] ;
55 -> 57 ;
58 [label="node #58\nloan_intent_EDUCATION <= 0.5\nsquared_error = 0.0\nsamples = 6\nvalue = 0.143", fillcolor="#f9e4d4"] ;
48 -> 58 ;
59 [label="node #59\nperson_income <= 12098.5\nsquared_error = 0.0\nsamples = 3\nvalue = 0.147", fillcolor="#f9e3d3"] ;
58 -> 59 ;
60 [label="node #60\nsquared_error = 0.0\nsamples = 2\nvalue = 0.15", fillcolor="#f9e2d2"] ;
59 -> 60 ;
61 [label="node #61\nsquared_error = 0.0\nsamples = 1\nvalue = 0.14", fillcolor="#f9e4d5"] ;
59 -> 61 ;
62 [label="node #62\nsquared_error = -0.0\nsamples = 3\nvalue = 0.14", fillcolor="#f9e4d5"] ;
58 -> 62 ;
63 [label="node #63\nloan_amnt <= 1400.0\nsquared_error = 0.0\nsamples = 17\nvalue = 0.122", fillcolor="#fae8da"] ;
47 -> 63 ;
64 [label="node #64\nperson_income <= 12813.0\nsquared_error = 0.0\nsamples = 2\nvalue = 0.095", fillcolor="#fbede2"] ;
63 -> 64 ;
65 [label="node #65\nsquared_error = 0.0\nsamples = 1\nvalue = 0.1", fillcolor="#fbece1"] ;
64 -> 65 ;
66 [label="node #66\nsquared_error = 0.0\nsamples = 1\nvalue = 0.09", fillcolor="#fbeee4"] ;
64 -> 66 ;
67 [label="node #67\nloan_amnt <= 1565.0\nsquared_error = 0.0\nsamples = 15\nvalue = 0.125", fillcolor="#fae7d9"] ;
63 -> 67 ;
68 [label="node #68\nloan_intent_PERSONAL <= 0.5\nsquared_error = 0.0\nsamples = 5\nvalue = 0.118", fillcolor="#fae8dc"] ;
67 -> 68 ;
69 [label="node #69\nsquared_error = -0.0\nsamples = 4\nvalue = 0.12", fillcolor="#fae8db"] ;
68 -> 69 ;
70 [label="node #70\nsquared_error = 0.0\nsamples = 1\nvalue = 0.11", fillcolor="#fbeade"] ;
68 -> 70 ;
71 [label="node #71\nperson_income <= 13667.5\nsquared_error = 0.0\nsamples = 10\nvalue = 0.129", fillcolor="#fae6d8"] ;
67 -> 71 ;
72 [label="node #72\ncredit_score <= 649.5\nsquared_error = 0.0\nsamples = 8\nvalue = 0.131", fillcolor="#fae6d8"] ;
71 -> 72 ;
73 [label="node #73\nsquared_error = 0.0\nsamples = 7\nvalue = 0.13", fillcolor="#fae6d8"] ;
72 -> 73 ;
74 [label="node #74\nsquared_error = -0.0\nsamples = 1\nvalue = 0.14", fillcolor="#f9e4d5"] ;
72 -> 74 ;
75 [label="node #75\nsquared_error = -0.0\nsamples = 2\nvalue = 0.12", fillcolor="#fae8db"] ;
71 -> 75 ;
76 [label="node #76\nperson_income <= 10244.5\nsquared_error = 0.001\nsamples = 34\nvalue = 0.169", fillcolor="#f8dfcc"] ;
6 -> 76 ;
77 [label="node #77\nperson_age <= 38.5\nsquared_error = 0.0\nsamples = 6\nvalue = 0.228", fillcolor="#f6d3ba"] ;
76 -> 77 ;
78 [label="node #78\ncb_person_cred_hist_length <= 4.0\nsquared_error = 0.0\nsamples = 5\nvalue = 0.224", fillcolor="#f6d4bc"] ;
77 -> 78 ;
79 [label="node #79\nsquared_error = 0.0\nsamples = 2\nvalue = 0.22", fillcolor="#f6d5bd"] ;
78 -> 79 ;
80 [label="node #80\nloan_int_rate <= 11.385\nsquared_error = 0.0\nsamples = 3\nvalue = 0.227", fillcolor="#f6d4bb"] ;
78 -> 80 ;
81 [label="node #81\nsquared_error = 0.0\nsamples = 1\nvalue = 0.22", fillcolor="#f6d5bd"] ;
80 -> 81 ;
82 [label="node #82\nsquared_error = -0.0\nsamples = 2\nvalue = 0.23", fillcolor="#f6d3ba"] ;
80 -> 82 ;
83 [label="node #83\nsquared_error = 0.0\nsamples = 1\nvalue = 0.25", fillcolor="#f5cfb4"] ;
77 -> 83 ;
84 [label="node #84\nperson_income <= 12917.0\nsquared_error = 0.0\nsamples = 28\nvalue = 0.157", fillcolor="#f9e1d0"] ;
76 -> 84 ;
85 [label="node #85\nperson_age <= 22.5\nsquared_error = 0.0\nsamples = 12\nvalue = 0.172", fillcolor="#f8decb"] ;
84 -> 85 ;
86 [label="node #86\nloan_amnt <= 2050.0\nsquared_error = 0.0\nsamples = 3\nvalue = 0.187", fillcolor="#f8dbc7"] ;
85 -> 86 ;
87 [label="node #87\nsquared_error = 0.0\nsamples = 1\nvalue = 0.17", fillcolor="#f8dfcc"] ;
86 -> 87 ;
88 [label="node #88\nloan_intent_MEDICAL <= 0.5\nsquared_error = 0.0\nsamples = 2\nvalue = 0.195", fillcolor="#f7dac4"] ;
86 -> 88 ;
89 [label="node #89\nsquared_error = 0.0\nsamples = 1\nvalue = 0.2", fillcolor="#f7d9c3"] ;
88 -> 89 ;
90 [label="node #90\nsquared_error = 0.0\nsamples = 1\nvalue = 0.19", fillcolor="#f8dbc6"] ;
88 -> 90 ;
91 [label="node #91\nloan_int_rate <= 7.81\nsquared_error = 0.0\nsamples = 9\nvalue = 0.168", fillcolor="#f8dfcd"] ;
85 -> 91 ;
92 [label="node #92\nsquared_error = 0.0\nsamples = 1\nvalue = 0.15", fillcolor="#f9e2d2"] ;
91 -> 92 ;
93 [label="node #93\nsquared_error = 0.0\nsamples = 8\nvalue = 0.17", fillcolor="#f8dfcc"] ;
91 -> 93 ;
94 [label="node #94\nperson_income <= 14601.5\nsquared_error = 0.0\nsamples = 16\nvalue = 0.145", fillcolor="#f9e3d4"] ;
84 -> 94 ;
95 [label="node #95\nperson_education <= 0.5\nsquared_error = 0.0\nsamples = 11\nvalue = 0.149", fillcolor="#f9e3d2"] ;
94 -> 95 ;
96 [label="node #96\nperson_income <= 14280.0\nsquared_error = 0.0\nsamples = 3\nvalue = 0.157", fillcolor="#f9e1d0"] ;
95 -> 96 ;
97 [label="node #97\nsquared_error = 0.0\nsamples = 2\nvalue = 0.16", fillcolor="#f9e0cf"] ;
96 -> 97 ;
98 [label="node #98\nsquared_error = -0.0\nsamples = 1\nvalue = 0.15", fillcolor="#f9e2d2"] ;
96 -> 98 ;
99 [label="node #99\nloan_amnt <= 1975.0\nsquared_error = 0.0\nsamples = 8\nvalue = 0.146", fillcolor="#f9e3d3"] ;
95 -> 99 ;
100 [label="node #100\nsquared_error = 0.0\nsamples = 2\nvalue = 0.14", fillcolor="#f9e4d5"] ;
99 -> 100 ;
101 [label="node #101\nloan_intent_EDUCATION <= 0.5\nsquared_error = 0.0\nsamples = 6\nvalue = 0.148", fillcolor="#f9e3d3"] ;
99 -> 101 ;
102 [label="node #102\nsquared_error = -0.0\nsamples = 5\nvalue = 0.15", fillcolor="#f9e2d2"] ;
101 -> 102 ;
103 [label="node #103\nsquared_error = 0.0\nsamples = 1\nvalue = 0.14", fillcolor="#f9e4d5"] ;
101 -> 103 ;
104 [label="node #104\nloan_int_rate <= 9.39\nsquared_error = 0.0\nsamples = 5\nvalue = 0.136", fillcolor="#fae5d6"] ;
94 -> 104 ;
105 [label="node #105\nsquared_error = 0.0\nsamples = 3\nvalue = 0.14", fillcolor="#f9e4d5"] ;
104 -> 105 ;
106 [label="node #106\nsquared_error = 0.0\nsamples = 2\nvalue = 0.13", fillcolor="#fae6d8"] ;
104 -> 106 ;
107 [label="node #107\nloan_amnt <= 1541.0\nsquared_error = 0.001\nsamples = 334\nvalue = 0.08", fillcolor="#fcf0e7"] ;
5 -> 107 ;
108 [label="node #108\nloan_amnt <= 1230.5\nsquared_error = 0.0\nsamples = 156\nvalue = 0.061", fillcolor="#fdf3ed"] ;
107 -> 108 ;
109 [label="node #109\nperson_income <= 21238.5\nsquared_error = 0.0\nsamples = 94\nvalue = 0.053", fillcolor="#fdf5ef"] ;
108 -> 109 ;
110 [label="node #110\nperson_income <= 15284.5\nsquared_error = 0.0\nsamples = 52\nvalue = 0.06", fillcolor="#fdf4ed"] ;
109 -> 110 ;
111 [label="node #111\nsquared_error = 0.0\nsamples = 9\nvalue = 0.07", fillcolor="#fcf2ea"] ;
110 -> 111 ;
112 [label="node #112\nloan_amnt <= 1076.0\nsquared_error = 0.0\nsamples = 43\nvalue = 0.058", fillcolor="#fdf4ee"] ;
110 -> 112 ;
113 [label="node #113\nperson_income <= 18196.0\nsquared_error = 0.0\nsamples = 24\nvalue = 0.055", fillcolor="#fdf5ef"] ;
112 -> 113 ;
114 [label="node #114\nloan_amnt <= 812.5\nsquared_error = 0.0\nsamples = 12\nvalue = 0.059", fillcolor="#fdf4ed"] ;
113 -> 114 ;
115 [label="node #115\nsquared_error = 0.0\nsamples = 1\nvalue = 0.05", fillcolor="#fdf5f0"] ;
114 -> 115 ;
116 [label="node #116\nsquared_error = -0.0\nsamples = 11\nvalue = 0.06", fillcolor="#fdf4ed"] ;
114 -> 116 ;
117 [label="node #117\nsquared_error = -0.0\nsamples = 12\nvalue = 0.05", fillcolor="#fdf5f0"] ;
113 -> 117 ;
118 [label="node #118\nperson_income <= 18427.5\nsquared_error = 0.0\nsamples = 19\nvalue = 0.062", fillcolor="#fdf3ec"] ;
112 -> 118 ;
119 [label="node #119\nloan_int_rate <= 11.94\nsquared_error = 0.0\nsamples = 7\nvalue = 0.066", fillcolor="#fcf2eb"] ;
118 -> 119 ;
120 [label="node #120\nsquared_error = 0.0\nsamples = 4\nvalue = 0.07", fillcolor="#fcf2ea"] ;
119 -> 120 ;
121 [label="node #121\nsquared_error = 0.0\nsamples = 3\nvalue = 0.06", fillcolor="#fdf4ed"] ;
119 -> 121 ;
122 [label="node #122\nsquared_error = -0.0\nsamples = 12\nvalue = 0.06", fillcolor="#fdf4ed"] ;
118 -> 122 ;
123 [label="node #123\nloan_amnt <= 875.0\nsquared_error = 0.0\nsamples = 42\nvalue = 0.044", fillcolor="#fdf7f2"] ;
109 -> 123 ;
124 [label="node #124\nloan_amnt <= 531.5\nsquared_error = 0.0\nsamples = 5\nvalue = 0.026", fillcolor="#fefaf7"] ;
123 -> 124 ;
125 [label="node #125\nsquared_error = 0.0\nsamples = 2\nvalue = 0.02", fillcolor="#fefbf9"] ;
124 -> 125 ;
126 [label="node #126\nsquared_error = -0.0\nsamples = 3\nvalue = 0.03", fillcolor="#fef9f6"] ;
124 -> 126 ;
127 [label="node #127\nloan_amnt <= 1020.5\nsquared_error = 0.0\nsamples = 37\nvalue = 0.046", fillcolor="#fdf6f1"] ;
123 -> 127 ;
128 [label="node #128\nperson_income <= 22367.5\nsquared_error = 0.0\nsamples = 20\nvalue = 0.044", fillcolor="#fdf7f2"] ;
127 -> 128 ;
129 [label="node #129\nsquared_error = 0.0\nsamples = 7\nvalue = 0.05", fillcolor="#fdf5f0"] ;
128 -> 129 ;
130 [label="node #130\nsquared_error = -0.0\nsamples = 13\nvalue = 0.04", fillcolor="#fdf7f3"] ;
128 -> 130 ;
131 [label="node #131\nsquared_error = -0.0\nsamples = 17\nvalue = 0.05", fillcolor="#fdf5f0"] ;
127 -> 131 ;
132 [label="node #132\nperson_income <= 19915.5\nsquared_error = 0.0\nsamples = 62\nvalue = 0.073", fillcolor="#fcf1e9"] ;
108 -> 132 ;
133 [label="node #133\nperson_income <= 16440.0\nsquared_error = 0.0\nsamples = 24\nvalue = 0.086", fillcolor="#fcefe5"] ;
132 -> 133 ;
134 [label="node #134\nperson_income <= 16020.0\nsquared_error = 0.0\nsamples = 8\nvalue = 0.099", fillcolor="#fbece1"] ;
133 -> 134 ;
135 [label="node #135\nsquared_error = 0.0\nsamples = 7\nvalue = 0.1", fillcolor="#fbece1"] ;
134 -> 135 ;
136 [label="node #136\nsquared_error = 0.0\nsamples = 1\nvalue = 0.09", fillcolor="#fbeee4"] ;
134 -> 136 ;
137 [label="node #137\nloan_status <= 0.5\nsquared_error = 0.0\nsamples = 16\nvalue = 0.08", fillcolor="#fcf0e7"] ;
133 -> 137 ;
138 [label="node #138\nloan_int_rate <= 9.065\nsquared_error = 0.0\nsamples = 13\nvalue = 0.082", fillcolor="#fcefe7"] ;
137 -> 138 ;
139 [label="node #139\nsquared_error = 0.0\nsamples = 1\nvalue = 0.09", fillcolor="#fbeee4"] ;
138 -> 139 ;
140 [label="node #140\nperson_age <= 31.0\nsquared_error = 0.0\nsamples = 12\nvalue = 0.081", fillcolor="#fcf0e7"] ;
138 -> 140 ;
141 [label="node #141\nsquared_error = 0.0\nsamples = 10\nvalue = 0.08", fillcolor="#fcf0e7"] ;
140 -> 141 ;
142 [label="node #142\nperson_emp_exp <= 9.5\nsquared_error = 0.0\nsamples = 2\nvalue = 0.085", fillcolor="#fcefe6"] ;
140 -> 142 ;
143 [label="node #143\nsquared_error = 0.0\nsamples = 1\nvalue = 0.09", fillcolor="#fbeee4"] ;
142 -> 143 ;
144 [label="node #144\nsquared_error = 0.0\nsamples = 1\nvalue = 0.08", fillcolor="#fcf0e7"] ;
142 -> 144 ;
145 [label="node #145\nloan_intent_VENTURE <= 0.5\nsquared_error = 0.0\nsamples = 3\nvalue = 0.073", fillcolor="#fcf1e9"] ;
137 -> 145 ;
146 [label="node #146\nsquared_error = 0.0\nsamples = 2\nvalue = 0.07", fillcolor="#fcf2ea"] ;
145 -> 146 ;
147 [label="node #147\nsquared_error = -0.0\nsamples = 1\nvalue = 0.08", fillcolor="#fcf0e7"] ;
145 -> 147 ;
148 [label="node #148\nperson_income <= 23067.0\nsquared_error = 0.0\nsamples = 38\nvalue = 0.065", fillcolor="#fcf3ec"] ;
132 -> 148 ;
149 [label="node #149\nsquared_error = 0.0\nsamples = 20\nvalue = 0.07", fillcolor="#fcf2ea"] ;
148 -> 149 ;
150 [label="node #150\nperson_home_ownership_OWN <= 0.5\nsquared_error = 0.0\nsamples = 18\nvalue = 0.059", fillcolor="#fdf4ed"] ;
148 -> 150 ;
151 [label="node #151\nsquared_error = -0.0\nsamples = 17\nvalue = 0.06", fillcolor="#fdf4ed"] ;
150 -> 151 ;
152 [label="node #152\nsquared_error = -0.0\nsamples = 1\nvalue = 0.05", fillcolor="#fdf5f0"] ;
150 -> 152 ;
153 [label="node #153\nperson_income <= 20752.0\nsquared_error = 0.0\nsamples = 178\nvalue = 0.097", fillcolor="#fbece2"] ;
107 -> 153 ;
154 [label="node #154\nperson_income <= 16429.0\nsquared_error = 0.0\nsamples = 100\nvalue = 0.109", fillcolor="#fbeade"] ;
153 -> 154 ;
155 [label="node #155\nloan_amnt <= 1762.5\nsquared_error = 0.0\nsamples = 25\nvalue = 0.124", fillcolor="#fae7da"] ;
154 -> 155 ;
156 [label="node #156\ncredit_score <= 634.5\nsquared_error = 0.0\nsamples = 6\nvalue = 0.107", fillcolor="#fbebdf"] ;
155 -> 156 ;
157 [label="node #157\nsquared_error = 0.0\nsamples = 3\nvalue = 0.11", fillcolor="#fbeade"] ;
156 -> 157 ;
158 [label="node #158\ncb_person_cred_hist_length <= 4.0\nsquared_error = 0.0\nsamples = 3\nvalue = 0.103", fillcolor="#fbebe0"] ;
156 -> 158 ;
159 [label="node #159\nsquared_error = -0.0\nsamples = 2\nvalue = 0.1", fillcolor="#fbece1"] ;
158 -> 159 ;
160 [label="node #160\nsquared_error = 0.0\nsamples = 1\nvalue = 0.11", fillcolor="#fbeade"] ;
158 -> 160 ;
161 [label="node #161\nloan_amnt <= 2079.5\nsquared_error = 0.0\nsamples = 19\nvalue = 0.13", fillcolor="#fae6d8"] ;
155 -> 161 ;
162 [label="node #162\nloan_amnt <= 1875.0\nsquared_error = 0.0\nsamples = 14\nvalue = 0.127", fillcolor="#fae7d9"] ;
161 -> 162 ;
163 [label="node #163\nsquared_error = 0.0\nsamples = 2\nvalue = 0.12", fillcolor="#fae8db"] ;
162 -> 163 ;
164 [label="node #164\nperson_income <= 16168.0\nsquared_error = 0.0\nsamples = 12\nvalue = 0.128", fillcolor="#fae6d9"] ;
162 -> 164 ;
165 [label="node #165\nsquared_error = 0.0\nsamples = 10\nvalue = 0.13", fillcolor="#fae6d8"] ;
164 -> 165 ;
166 [label="node #166\nsquared_error = -0.0\nsamples = 2\nvalue = 0.12", fillcolor="#fae8db"] ;
164 -> 166 ;
167 [label="node #167\nloan_int_rate <= 11.75\nsquared_error = 0.0\nsamples = 5\nvalue = 0.138", fillcolor="#fae5d6"] ;
161 -> 167 ;
168 [label="node #168\nsquared_error = 0.0\nsamples = 4\nvalue = 0.14", fillcolor="#f9e4d5"] ;
167 -> 168 ;
169 [label="node #169\nsquared_error = 0.0\nsamples = 1\nvalue = 0.13", fillcolor="#fae6d8"] ;
167 -> 169 ;
170 [label="node #170\nloan_amnt <= 1855.0\nsquared_error = 0.0\nsamples = 75\nvalue = 0.105", fillcolor="#fbebe0"] ;
154 -> 170 ;
171 [label="node #171\nperson_income <= 18839.0\nsquared_error = 0.0\nsamples = 23\nvalue = 0.094", fillcolor="#fbede3"] ;
170 -> 171 ;
172 [label="node #172\nloan_amnt <= 1741.0\nsquared_error = 0.0\nsamples = 16\nvalue = 0.098", fillcolor="#fbece2"] ;
171 -> 172 ;
173 [label="node #173\nperson_age <= 27.0\nsquared_error = 0.0\nsamples = 7\nvalue = 0.093", fillcolor="#fbede3"] ;
172 -> 173 ;
174 [label="node #174\nsquared_error = 0.0\nsamples = 5\nvalue = 0.09", fillcolor="#fbeee4"] ;
173 -> 174 ;
175 [label="node #175\nsquared_error = 0.0\nsamples = 2\nvalue = 0.1", fillcolor="#fbece1"] ;
173 -> 175 ;
176 [label="node #176\nloan_amnt <= 1765.0\nsquared_error = 0.0\nsamples = 9\nvalue = 0.101", fillcolor="#fbece1"] ;
172 -> 176 ;
177 [label="node #177\nsquared_error = 0.0\nsamples = 1\nvalue = 0.11", fillcolor="#fbeade"] ;
176 -> 177 ;
178 [label="node #178\nsquared_error = 0.0\nsamples = 8\nvalue = 0.1", fillcolor="#fbece1"] ;
176 -> 178 ;
179 [label="node #179\nperson_emp_exp <= 0.5\nsquared_error = 0.0\nsamples = 7\nvalue = 0.086", fillcolor="#fcefe5"] ;
171 -> 179 ;
180 [label="node #180\nsquared_error = 0.0\nsamples = 3\nvalue = 0.08", fillcolor="#fcf0e7"] ;
179 -> 180 ;
181 [label="node #181\nsquared_error = 0.0\nsamples = 4\nvalue = 0.09", fillcolor="#fbeee4"] ;
179 -> 181 ;
182 [label="node #182\nloan_amnt <= 2063.0\nsquared_error = 0.0\nsamples = 52\nvalue = 0.109", fillcolor="#fbeade"] ;
170 -> 182 ;
183 [label="node #183\nperson_income <= 18996.0\nsquared_error = 0.0\nsamples = 31\nvalue = 0.106", fillcolor="#fbebdf"] ;
182 -> 183 ;
184 [label="node #184\nloan_amnt <= 1962.5\nsquared_error = 0.0\nsamples = 20\nvalue = 0.109", fillcolor="#fbeade"] ;
183 -> 184 ;
185 [label="node #185\nperson_age <= 22.5\nsquared_error = 0.0\nsamples = 3\nvalue = 0.103", fillcolor="#fbebe0"] ;
184 -> 185 ;
186 [label="node #186\nsquared_error = 0.0\nsamples = 1\nvalue = 0.11", fillcolor="#fbeade"] ;
185 -> 186 ;
187 [label="node #187\nsquared_error = -0.0\nsamples = 2\nvalue = 0.1", fillcolor="#fbece1"] ;
185 -> 187 ;
188 [label="node #188\nsquared_error = -0.0\nsamples = 17\nvalue = 0.11", fillcolor="#fbeade"] ;
184 -> 188 ;
189 [label="node #189\nsquared_error = -0.0\nsamples = 11\nvalue = 0.1", fillcolor="#fbece1"] ;
183 -> 189 ;
190 [label="node #190\nperson_income <= 18254.5\nsquared_error = 0.0\nsamples = 21\nvalue = 0.114", fillcolor="#fae9dd"] ;
182 -> 190 ;
191 [label="node #191\nperson_age <= 26.0\nsquared_error = 0.0\nsamples = 3\nvalue = 0.123", fillcolor="#fae7da"] ;
190 -> 191 ;
192 [label="node #192\nsquared_error = 0.0\nsamples = 1\nvalue = 0.13", fillcolor="#fae6d8"] ;
191 -> 192 ;
193 [label="node #193\nsquared_error = -0.0\nsamples = 2\nvalue = 0.12", fillcolor="#fae8db"] ;
191 -> 193 ;
194 [label="node #194\nperson_age <= 26.0\nsquared_error = 0.0\nsamples = 18\nvalue = 0.113", fillcolor="#fbe9dd"] ;
190 -> 194 ;
195 [label="node #195\nloan_int_rate <= 11.075\nsquared_error = 0.0\nsamples = 14\nvalue = 0.111", fillcolor="#fbeade"] ;
194 -> 195 ;
196 [label="node #196\ncredit_score <= 612.5\nsquared_error = 0.0\nsamples = 3\nvalue = 0.117", fillcolor="#fae9dc"] ;
195 -> 196 ;
197 [label="node #197\nsquared_error = 0.0\nsamples = 1\nvalue = 0.11", fillcolor="#fbeade"] ;
196 -> 197 ;
198 [label="node #198\nsquared_error = 0.0\nsamples = 2\nvalue = 0.12", fillcolor="#fae8db"] ;
196 -> 198 ;
199 [label="node #199\nsquared_error = -0.0\nsamples = 11\nvalue = 0.11", fillcolor="#fbeade"] ;
195 -> 199 ;
200 [label="node #200\nloan_intent_MEDICAL <= 0.5\nsquared_error = 0.0\nsamples = 4\nvalue = 0.118", fillcolor="#fae9dc"] ;
194 -> 200 ;
201 [label="node #201\nsquared_error = -0.0\nsamples = 3\nvalue = 0.12", fillcolor="#fae8db"] ;
200 -> 201 ;
202 [label="node #202\nsquared_error = 0.0\nsamples = 1\nvalue = 0.11", fillcolor="#fbeade"] ;
200 -> 202 ;
203 [label="node #203\nloan_amnt <= 1946.5\nsquared_error = 0.0\nsamples = 78\nvalue = 0.082", fillcolor="#fcefe6"] ;
153 -> 203 ;
204 [label="node #204\nperson_income <= 24541.0\nsquared_error = 0.0\nsamples = 27\nvalue = 0.074", fillcolor="#fcf1e9"] ;
203 -> 204 ;
205 [label="node #205\nloan_amnt <= 1668.0\nsquared_error = 0.0\nsamples = 21\nvalue = 0.076", fillcolor="#fcf0e8"] ;
204 -> 205 ;
206 [label="node #206\nloan_int_rate <= 13.695\nsquared_error = 0.0\nsamples = 6\nvalue = 0.072", fillcolor="#fcf1ea"] ;
205 -> 206 ;
207 [label="node #207\nsquared_error = 0.0\nsamples = 5\nvalue = 0.07", fillcolor="#fcf2ea"] ;
206 -> 207 ;
208 [label="node #208\nsquared_error = 0.0\nsamples = 1\nvalue = 0.08", fillcolor="#fcf0e7"] ;
206 -> 208 ;
209 [label="node #209\ncb_person_cred_hist_length <= 2.5\nsquared_error = 0.0\nsamples = 15\nvalue = 0.078", fillcolor="#fcf0e8"] ;
205 -> 209 ;
210 [label="node #210\nsquared_error = 0.0\nsamples = 1\nvalue = 0.07", fillcolor="#fcf2ea"] ;
209 -> 210 ;
211 [label="node #211\nloan_amnt <= 1725.0\nsquared_error = 0.0\nsamples = 14\nvalue = 0.079", fillcolor="#fcf0e7"] ;
209 -> 211 ;
212 [label="node #212\nperson_income <= 22617.0\nsquared_error = 0.0\nsamples = 5\nvalue = 0.076", fillcolor="#fcf0e8"] ;
211 -> 212 ;
213 [label="node #213\nsquared_error = -0.0\nsamples = 3\nvalue = 0.08", fillcolor="#fcf0e7"] ;
212 -> 213 ;
214 [label="node #214\nsquared_error = -0.0\nsamples = 2\nvalue = 0.07", fillcolor="#fcf2ea"] ;
212 -> 214 ;
215 [label="node #215\nsquared_error = 0.0\nsamples = 9\nvalue = 0.08", fillcolor="#fcf0e7"] ;
211 -> 215 ;
216 [label="node #216\nloan_int_rate <= 14.79\nsquared_error = 0.0\nsamples = 6\nvalue = 0.068", fillcolor="#fcf2ea"] ;
204 -> 216 ;
217 [label="node #217\nsquared_error = 0.0\nsamples = 5\nvalue = 0.07", fillcolor="#fcf2ea"] ;
216 -> 217 ;
218 [label="node #218\nsquared_error = 0.0\nsamples = 1\nvalue = 0.06", fillcolor="#fdf4ed"] ;
216 -> 218 ;
219 [label="node #219\nperson_income <= 23827.0\nsquared_error = 0.0\nsamples = 51\nvalue = 0.086", fillcolor="#fcefe5"] ;
203 -> 219 ;
220 [label="node #220\nloan_amnt <= 2106.0\nsquared_error = 0.0\nsamples = 22\nvalue = 0.093", fillcolor="#fbede3"] ;
219 -> 220 ;
221 [label="node #221\nperson_income <= 21032.5\nsquared_error = 0.0\nsamples = 15\nvalue = 0.091", fillcolor="#fbeee4"] ;
220 -> 221 ;
222 [label="node #222\nsquared_error = 0.0\nsamples = 1\nvalue = 0.1", fillcolor="#fbece1"] ;
221 -> 222 ;
223 [label="node #223\nsquared_error = -0.0\nsamples = 14\nvalue = 0.09", fillcolor="#fbeee4"] ;
221 -> 223 ;
224 [label="node #224\nperson_home_ownership_OWN <= 0.5\nsquared_error = 0.0\nsamples = 7\nvalue = 0.099", fillcolor="#fbece1"] ;
220 -> 224 ;
225 [label="node #225\nsquared_error = 0.0\nsamples = 6\nvalue = 0.1", fillcolor="#fbece1"] ;
224 -> 225 ;
226 [label="node #226\nsquared_error = 0.0\nsamples = 1\nvalue = 0.09", fillcolor="#fbeee4"] ;
224 -> 226 ;
227 [label="node #227\nloan_amnt <= 2125.0\nsquared_error = 0.0\nsamples = 29\nvalue = 0.081", fillcolor="#fcf0e7"] ;
219 -> 227 ;
228 [label="node #228\nsquared_error = -0.0\nsamples = 27\nvalue = 0.08", fillcolor="#fcf0e7"] ;
227 -> 228 ;
229 [label="node #229\nsquared_error = 0.0\nsamples = 2\nvalue = 0.09", fillcolor="#fbeee4"] ;
227 -> 229 ;
230 [label="node #230\nperson_income <= 18548.5\nsquared_error = 0.002\nsamples = 704\nvalue = 0.166", fillcolor="#f8dfcd"] ;
4 -> 230 ;
231 [label="node #231\nloan_amnt <= 3028.5\nsquared_error = 0.002\nsamples = 221\nvalue = 0.214", fillcolor="#f7d6bf"] ;
230 -> 231 ;
232 [label="node #232\nperson_income <= 13402.0\nsquared_error = 0.002\nsamples = 113\nvalue = 0.186", fillcolor="#f8dcc7"] ;
231 -> 232 ;
233 [label="node #233\nperson_income <= 10954.5\nsquared_error = 0.001\nsamples = 31\nvalue = 0.24", fillcolor="#f6d1b7"] ;
232 -> 233 ;
234 [label="node #234\nloan_int_rate <= 14.555\nsquared_error = 0.001\nsamples = 11\nvalue = 0.269", fillcolor="#f4ccae"] ;
233 -> 234 ;
235 [label="node #235\nloan_amnt <= 2460.5\nsquared_error = 0.0\nsamples = 9\nvalue = 0.258", fillcolor="#f5ceb2"] ;
234 -> 235 ;
236 [label="node #236\nsquared_error = 0.0\nsamples = 1\nvalue = 0.23", fillcolor="#f6d3ba"] ;
235 -> 236 ;
237 [label="node #237\nloan_amnt <= 2900.0\nsquared_error = 0.0\nsamples = 8\nvalue = 0.261", fillcolor="#f5cdb1"] ;
235 -> 237 ;
238 [label="node #238\nperson_age <= 23.0\nsquared_error = 0.0\nsamples = 7\nvalue = 0.259", fillcolor="#f5ceb1"] ;
237 -> 238 ;
239 [label="node #239\ncb_person_cred_hist_length <= 3.5\nsquared_error = 0.0\nsamples = 5\nvalue = 0.262", fillcolor="#f5cdb0"] ;
238 -> 239 ;
240 [label="node #240\nsquared_error = 0.0\nsamples = 4\nvalue = 0.26", fillcolor="#f5cdb1"] ;
239 -> 240 ;
241 [label="node #241\nsquared_error = -0.0\nsamples = 1\nvalue = 0.27", fillcolor="#f4cbae"] ;
239 -> 241 ;
242 [label="node #242\nsquared_error = 0.0\nsamples = 2\nvalue = 0.25", fillcolor="#f5cfb4"] ;
238 -> 242 ;
243 [label="node #243\nsquared_error = 0.0\nsamples = 1\nvalue = 0.28", fillcolor="#f4caab"] ;
237 -> 243 ;
244 [label="node #244\nloan_intent_VENTURE <= 0.5\nsquared_error = 0.0\nsamples = 2\nvalue = 0.32", fillcolor="#f2c29f"] ;
234 -> 244 ;
245 [label="node #245\nsquared_error = 0.0\nsamples = 1\nvalue = 0.34", fillcolor="#f2be99"] ;
244 -> 245 ;
246 [label="node #246\nsquared_error = -0.0\nsamples = 1\nvalue = 0.3", fillcolor="#f3c6a5"] ;
244 -> 246 ;
247 [label="node #247\nloan_amnt <= 2753.5\nsquared_error = 0.0\nsamples = 20\nvalue = 0.224", fillcolor="#f6d4bc"] ;
233 -> 247 ;
248 [label="node #248\nperson_income <= 11391.0\nsquared_error = 0.0\nsamples = 11\nvalue = 0.211", fillcolor="#f7d7c0"] ;
247 -> 248 ;
249 [label="node #249\nloan_amnt <= 2567.5\nsquared_error = 0.0\nsamples = 4\nvalue = 0.225", fillcolor="#f6d4bc"] ;
248 -> 249 ;
250 [label="node #250\nsquared_error = 0.0\nsamples = 3\nvalue = 0.22", fillcolor="#f6d5bd"] ;
249 -> 250 ;
251 [label="node #251\nsquared_error = -0.0\nsamples = 1\nvalue = 0.24", fillcolor="#f6d1b7"] ;
249 -> 251 ;
252 [label="node #252\ncb_person_cred_hist_length <= 5.0\nsquared_error = 0.0\nsamples = 7\nvalue = 0.203", fillcolor="#f7d8c2"] ;
248 -> 252 ;
253 [label="node #253\nperson_age <= 22.0\nsquared_error = 0.0\nsamples = 3\nvalue = 0.193", fillcolor="#f7dac5"] ;
252 -> 253 ;
254 [label="node #254\nsquared_error = -0.0\nsamples = 2\nvalue = 0.19", fillcolor="#f8dbc6"] ;
253 -> 254 ;
255 [label="node #255\nsquared_error = 0.0\nsamples = 1\nvalue = 0.2", fillcolor="#f7d9c3"] ;
253 -> 255 ;
256 [label="node #256\nsquared_error = 0.0\nsamples = 4\nvalue = 0.21", fillcolor="#f7d7c0"] ;
252 -> 256 ;
257 [label="node #257\nperson_income <= 12070.0\nsquared_error = 0.0\nsamples = 9\nvalue = 0.239", fillcolor="#f6d1b7"] ;
247 -> 257 ;
258 [label="node #258\nperson_income <= 11618.0\nsquared_error = 0.0\nsamples = 3\nvalue = 0.253", fillcolor="#f5cfb3"] ;
257 -> 258 ;
259 [label="node #259\nsquared_error = 0.0\nsamples = 1\nvalue = 0.26", fillcolor="#f5cdb1"] ;
258 -> 259 ;
260 [label="node #260\nsquared_error = -0.0\nsamples = 2\nvalue = 0.25", fillcolor="#f5cfb4"] ;
258 -> 260 ;
261 [label="node #261\nperson_education <= 2.0\nsquared_error = 0.0\nsamples = 6\nvalue = 0.232", fillcolor="#f6d3ba"] ;
257 -> 261 ;
262 [label="node #262\nsquared_error = -0.0\nsamples = 5\nvalue = 0.23", fillcolor="#f6d3ba"] ;
261 -> 262 ;
263 [label="node #263\nsquared_error = -0.0\nsamples = 1\nvalue = 0.24", fillcolor="#f6d1b7"] ;
261 -> 263 ;
264 [label="node #264\nloan_amnt <= 2630.0\nsquared_error = 0.0\nsamples = 82\nvalue = 0.165", fillcolor="#f8dfcd"] ;
232 -> 264 ;
265 [label="node #265\nperson_income <= 16290.0\nsquared_error = 0.0\nsamples = 44\nvalue = 0.154", fillcolor="#f9e2d1"] ;
264 -> 265 ;
266 [label="node #266\nperson_income <= 15168.0\nsquared_error = 0.0\nsamples = 23\nvalue = 0.163", fillcolor="#f9e0ce"] ;
265 -> 266 ;
267 [label="node #267\nperson_education <= 2.5\nsquared_error = 0.0\nsamples = 9\nvalue = 0.172", fillcolor="#f8decb"] ;
266 -> 267 ;
268 [label="node #268\nloan_amnt <= 2362.5\nsquared_error = 0.0\nsamples = 6\nvalue = 0.168", fillcolor="#f8dfcc"] ;
267 -> 268 ;
269 [label="node #269\nsquared_error = 0.0\nsamples = 1\nvalue = 0.16", fillcolor="#f9e0cf"] ;
268 -> 269 ;
270 [label="node #270\nsquared_error = 0.0\nsamples = 5\nvalue = 0.17", fillcolor="#f8dfcc"] ;
268 -> 270 ;
271 [label="node #271\nsquared_error = 0.0\nsamples = 3\nvalue = 0.18", fillcolor="#f8ddc9"] ;
267 -> 271 ;
272 [label="node #272\nperson_age <= 27.0\nsquared_error = 0.0\nsamples = 14\nvalue = 0.158", fillcolor="#f9e1d0"] ;
266 -> 272 ;
273 [label="node #273\nsquared_error = -0.0\nsamples = 9\nvalue = 0.16", fillcolor="#f9e0cf"] ;
272 -> 273 ;
274 [label="node #274\nperson_income <= 15442.0\nsquared_error = 0.0\nsamples = 5\nvalue = 0.154", fillcolor="#f9e2d1"] ;
272 -> 274 ;
275 [label="node #275\nsquared_error = 0.0\nsamples = 2\nvalue = 0.16", fillcolor="#f9e0cf"] ;
274 -> 275 ;
276 [label="node #276\nsquared_error = -0.0\nsamples = 3\nvalue = 0.15", fillcolor="#f9e2d2"] ;
274 -> 276 ;
277 [label="node #277\nperson_income <= 16899.5\nsquared_error = 0.0\nsamples = 21\nvalue = 0.143", fillcolor="#f9e4d4"] ;
265 -> 277 ;
278 [label="node #278\ncredit_score <= 611.5\nsquared_error = 0.0\nsamples = 11\nvalue = 0.148", fillcolor="#f9e3d3"] ;
277 -> 278 ;
279 [label="node #279\nsquared_error = 0.0\nsamples = 2\nvalue = 0.14", fillcolor="#f9e4d5"] ;
278 -> 279 ;
280 [label="node #280\nsquared_error = 0.0\nsamples = 9\nvalue = 0.15", fillcolor="#f9e2d2"] ;
278 -> 280 ;
281 [label="node #281\nperson_education <= 2.5\nsquared_error = 0.0\nsamples = 10\nvalue = 0.138", fillcolor="#fae5d6"] ;
277 -> 281 ;
282 [label="node #282\nsquared_error = -0.0\nsamples = 7\nvalue = 0.14", fillcolor="#f9e4d5"] ;
281 -> 282 ;
283 [label="node #283\nloan_intent_VENTURE <= 0.5\nsquared_error = 0.0\nsamples = 3\nvalue = 0.133", fillcolor="#fae6d7"] ;
281 -> 283 ;
284 [label="node #284\nsquared_error = 0.0\nsamples = 2\nvalue = 0.13", fillcolor="#fae6d8"] ;
283 -> 284 ;
285 [label="node #285\nsquared_error = 0.0\nsamples = 1\nvalue = 0.14", fillcolor="#f9e4d5"] ;
283 -> 285 ;
286 [label="node #286\nperson_income <= 15995.0\nsquared_error = 0.0\nsamples = 38\nvalue = 0.179", fillcolor="#f8ddc9"] ;
264 -> 286 ;
287 [label="node #287\nloan_amnt <= 2750.0\nsquared_error = 0.0\nsamples = 17\nvalue = 0.195", fillcolor="#f7dac5"] ;
286 -> 287 ;
288 [label="node #288\nperson_emp_exp <= 1.0\nsquared_error = 0.0\nsamples = 2\nvalue = 0.175", fillcolor="#f8deca"] ;
287 -> 288 ;
289 [label="node #289\nsquared_error = 0.0\nsamples = 1\nvalue = 0.17", fillcolor="#f8dfcc"] ;
288 -> 289 ;
290 [label="node #290\nsquared_error = 0.0\nsamples = 1\nvalue = 0.18", fillcolor="#f8ddc9"] ;
288 -> 290 ;
291 [label="node #291\ncredit_score <= 595.0\nsquared_error = 0.0\nsamples = 15\nvalue = 0.197", fillcolor="#f7d9c4"] ;
287 -> 291 ;
292 [label="node #292\nperson_income <= 14606.5\nsquared_error = 0.0\nsamples = 7\nvalue = 0.203", fillcolor="#f7d8c2"] ;
291 -> 292 ;
293 [label="node #293\nsquared_error = 0.0\nsamples = 2\nvalue = 0.21", fillcolor="#f7d7c0"] ;
292 -> 293 ;
294 [label="node #294\nsquared_error = -0.0\nsamples = 5\nvalue = 0.2", fillcolor="#f7d9c3"] ;
292 -> 294 ;
295 [label="node #295\nperson_age <= 22.5\nsquared_error = 0.0\nsamples = 8\nvalue = 0.192", fillcolor="#f7dac5"] ;
291 -> 295 ;
296 [label="node #296\nperson_income <= 15341.0\nsquared_error = 0.0\nsamples = 3\nvalue = 0.197", fillcolor="#f7d9c4"] ;
295 -> 296 ;
297 [label="node #297\nsquared_error = -0.0\nsamples = 2\nvalue = 0.2", fillcolor="#f7d9c3"] ;
296 -> 297 ;
298 [label="node #298\nsquared_error = -0.0\nsamples = 1\nvalue = 0.19", fillcolor="#f8dbc6"] ;
296 -> 298 ;
299 [label="node #299\nsquared_error = 0.0\nsamples = 5\nvalue = 0.19", fillcolor="#f8dbc6"] ;
295 -> 299 ;
300 [label="node #300\nperson_income <= 18181.5\nsquared_error = 0.0\nsamples = 21\nvalue = 0.166", fillcolor="#f8dfcd"] ;
286 -> 300 ;
301 [label="node #301\nloan_int_rate <= 13.86\nsquared_error = 0.0\nsamples = 14\nvalue = 0.17", fillcolor="#f8dfcc"] ;
300 -> 301 ;
302 [label="node #302\nperson_income <= 17040.5\nsquared_error = 0.0\nsamples = 10\nvalue = 0.172", fillcolor="#f8decb"] ;
301 -> 302 ;
303 [label="node #303\nsquared_error = 0.0\nsamples = 2\nvalue = 0.18", fillcolor="#f8ddc9"] ;
302 -> 303 ;
304 [label="node #304\nsquared_error = 0.0\nsamples = 8\nvalue = 0.17", fillcolor="#f8dfcc"] ;
302 -> 304 ;
305 [label="node #305\nperson_education <= 1.5\nsquared_error = 0.0\nsamples = 4\nvalue = 0.165", fillcolor="#f8e0ce"] ;
301 -> 305 ;
306 [label="node #306\nsquared_error = 0.0\nsamples = 2\nvalue = 0.16", fillcolor="#f9e0cf"] ;
305 -> 306 ;
307 [label="node #307\nsquared_error = 0.0\nsamples = 2\nvalue = 0.17", fillcolor="#f8dfcc"] ;
305 -> 307 ;
308 [label="node #308\nloan_intent_VENTURE <= 0.5\nsquared_error = 0.0\nsamples = 7\nvalue = 0.159", fillcolor="#f9e1cf"] ;
300 -> 308 ;
309 [label="node #309\nsquared_error = 0.0\nsamples = 6\nvalue = 0.16", fillcolor="#f9e0cf"] ;
308 -> 309 ;
310 [label="node #310\nsquared_error = -0.0\nsamples = 1\nvalue = 0.15", fillcolor="#f9e2d2"] ;
308 -> 310 ;
311 [label="node #311\nperson_income <= 15123.0\nsquared_error = 0.001\nsamples = 108\nvalue = 0.243", fillcolor="#f5d1b6"] ;
231 -> 311 ;
312 [label="node #312\nperson_income <= 11757.5\nsquared_error = 0.002\nsamples = 29\nvalue = 0.283", fillcolor="#f4c9aa"] ;
311 -> 312 ;
313 [label="node #313\nperson_age <= 27.5\nsquared_error = 0.002\nsamples = 7\nvalue = 0.334", fillcolor="#f2bf9b"] ;
312 -> 313 ;
314 [label="node #314\ncredit_score <= 591.0\nsquared_error = 0.0\nsamples = 4\nvalue = 0.3", fillcolor="#f3c6a5"] ;
313 -> 314 ;
315 [label="node #315\nsquared_error = 0.0\nsamples = 1\nvalue = 0.29", fillcolor="#f4c8a8"] ;
314 -> 315 ;
316 [label="node #316\nperson_income <= 11203.0\nsquared_error = 0.0\nsamples = 3\nvalue = 0.303", fillcolor="#f3c5a4"] ;
314 -> 316 ;
317 [label="node #317\nsquared_error = 0.0\nsamples = 2\nvalue = 0.3", fillcolor="#f3c6a5"] ;
316 -> 317 ;
318 [label="node #318\nsquared_error = -0.0\nsamples = 1\nvalue = 0.31", fillcolor="#f3c4a2"] ;
316 -> 318 ;
319 [label="node #319\nperson_gender <= 0.5\nsquared_error = 0.0\nsamples = 3\nvalue = 0.38", fillcolor="#f0b68d"] ;
313 -> 319 ;
320 [label="node #320\nsquared_error = -0.0\nsamples = 2\nvalue = 0.37", fillcolor="#f0b890"] ;
319 -> 320 ;
321 [label="node #321\nsquared_error = 0.0\nsamples = 1\nvalue = 0.4", fillcolor="#efb387"] ;
319 -> 321 ;
322 [label="node #322\nloan_amnt <= 3901.5\nsquared_error = 0.0\nsamples = 22\nvalue = 0.266", fillcolor="#f5ccaf"] ;
312 -> 322 ;
323 [label="node #323\nloan_amnt <= 3534.5\nsquared_error = 0.0\nsamples = 16\nvalue = 0.256", fillcolor="#f5ceb2"] ;
322 -> 323 ;
324 [label="node #324\ncredit_score <= 642.0\nsquared_error = 0.0\nsamples = 9\nvalue = 0.249", fillcolor="#f5cfb4"] ;
323 -> 324 ;
325 [label="node #325\nloan_int_rate <= 9.445\nsquared_error = 0.0\nsamples = 3\nvalue = 0.243", fillcolor="#f5d1b6"] ;
324 -> 325 ;
326 [label="node #326\nsquared_error = 0.0\nsamples = 1\nvalue = 0.25", fillcolor="#f5cfb4"] ;
325 -> 326 ;
327 [label="node #327\nsquared_error = 0.0\nsamples = 2\nvalue = 0.24", fillcolor="#f6d1b7"] ;
325 -> 327 ;
328 [label="node #328\ncredit_score <= 648.5\nsquared_error = 0.0\nsamples = 6\nvalue = 0.252", fillcolor="#f5cfb4"] ;
324 -> 328 ;
329 [label="node #329\nsquared_error = 0.0\nsamples = 1\nvalue = 0.26", fillcolor="#f5cdb1"] ;
328 -> 329 ;
330 [label="node #330\nsquared_error = 0.0\nsamples = 5\nvalue = 0.25", fillcolor="#f5cfb4"] ;
328 -> 330 ;
331 [label="node #331\nperson_gender <= 0.5\nsquared_error = 0.0\nsamples = 7\nvalue = 0.266", fillcolor="#f5ccaf"] ;
323 -> 331 ;
332 [label="node #332\nsquared_error = 0.0\nsamples = 4\nvalue = 0.26", fillcolor="#f5cdb1"] ;
331 -> 332 ;
333 [label="node #333\nperson_education <= 0.5\nsquared_error = 0.0\nsamples = 3\nvalue = 0.273", fillcolor="#f4cbad"] ;
331 -> 333 ;
334 [label="node #334\nsquared_error = 0.0\nsamples = 2\nvalue = 0.27", fillcolor="#f4cbae"] ;
333 -> 334 ;
335 [label="node #335\nsquared_error = 0.0\nsamples = 1\nvalue = 0.28", fillcolor="#f4caab"] ;
333 -> 335 ;
336 [label="node #336\nperson_income <= 13928.5\nsquared_error = 0.0\nsamples = 6\nvalue = 0.293", fillcolor="#f3c7a7"] ;
322 -> 336 ;
337 [label="node #337\nloan_int_rate <= 12.255\nsquared_error = 0.0\nsamples = 3\nvalue = 0.313", fillcolor="#f3c3a1"] ;
336 -> 337 ;
338 [label="node #338\nsquared_error = 0.0\nsamples = 2\nvalue = 0.31", fillcolor="#f3c4a2"] ;
337 -> 338 ;
339 [label="node #339\nsquared_error = -0.0\nsamples = 1\nvalue = 0.32", fillcolor="#f2c29f"] ;
337 -> 339 ;
340 [label="node #340\ncb_person_cred_hist_length <= 14.5\nsquared_error = 0.0\nsamples = 3\nvalue = 0.273", fillcolor="#f4cbad"] ;
336 -> 340 ;
341 [label="node #341\nsquared_error = 0.0\nsamples = 2\nvalue = 0.27", fillcolor="#f4cbae"] ;
340 -> 341 ;
342 [label="node #342\nsquared_error = 0.0\nsamples = 1\nvalue = 0.28", fillcolor="#f4caab"] ;
340 -> 342 ;
343 [label="node #343\nloan_amnt <= 3899.5\nsquared_error = 0.001\nsamples = 79\nvalue = 0.228", fillcolor="#f6d3ba"] ;
311 -> 343 ;
344 [label="node #344\nperson_income <= 17269.5\nsquared_error = 0.0\nsamples = 33\nvalue = 0.208", fillcolor="#f7d7c0"] ;
343 -> 344 ;
345 [label="node #345\nloan_amnt <= 3375.0\nsquared_error = 0.0\nsamples = 23\nvalue = 0.216", fillcolor="#f7d6be"] ;
344 -> 345 ;
346 [label="node #346\nloan_amnt <= 3137.5\nsquared_error = 0.0\nsamples = 13\nvalue = 0.207", fillcolor="#f7d7c1"] ;
345 -> 346 ;
347 [label="node #347\nsquared_error = -0.0\nsamples = 3\nvalue = 0.2", fillcolor="#f7d9c3"] ;
346 -> 347 ;
348 [label="node #348\nperson_income <= 15695.5\nsquared_error = 0.0\nsamples = 10\nvalue = 0.209", fillcolor="#f7d7c0"] ;
346 -> 348 ;
349 [label="node #349\nsquared_error = -0.0\nsamples = 9\nvalue = 0.21", fillcolor="#f7d7c0"] ;
348 -> 349 ;
350 [label="node #350\nsquared_error = 0.0\nsamples = 1\nvalue = 0.2", fillcolor="#f7d9c3"] ;
348 -> 350 ;
351 [label="node #351\ncb_person_cred_hist_length <= 2.5\nsquared_error = 0.0\nsamples = 10\nvalue = 0.227", fillcolor="#f6d4bb"] ;
345 -> 351 ;
352 [label="node #352\nperson_emp_exp <= 1.5\nsquared_error = 0.0\nsamples = 4\nvalue = 0.235", fillcolor="#f6d2b8"] ;
351 -> 352 ;
353 [label="node #353\nsquared_error = 0.0\nsamples = 2\nvalue = 0.23", fillcolor="#f6d3ba"] ;
352 -> 353 ;
354 [label="node #354\nsquared_error = 0.0\nsamples = 2\nvalue = 0.24", fillcolor="#f6d1b7"] ;
352 -> 354 ;
355 [label="node #355\nloan_intent_PERSONAL <= 0.5\nsquared_error = 0.0\nsamples = 6\nvalue = 0.222", fillcolor="#f6d5bc"] ;
351 -> 355 ;
356 [label="node #356\nperson_income <= 16338.0\nsquared_error = 0.0\nsamples = 4\nvalue = 0.218", fillcolor="#f6d5be"] ;
355 -> 356 ;
357 [label="node #357\nsquared_error = 0.0\nsamples = 1\nvalue = 0.21", fillcolor="#f7d7c0"] ;
356 -> 357 ;
358 [label="node #358\nsquared_error = 0.0\nsamples = 3\nvalue = 0.22", fillcolor="#f6d5bd"] ;
356 -> 358 ;
359 [label="node #359\nsquared_error = 0.0\nsamples = 2\nvalue = 0.23", fillcolor="#f6d3ba"] ;
355 -> 359 ;
360 [label="node #360\nloan_amnt <= 3350.0\nsquared_error = 0.0\nsamples = 10\nvalue = 0.192", fillcolor="#f7dac5"] ;
344 -> 360 ;
361 [label="node #361\nloan_int_rate <= 15.845\nsquared_error = 0.0\nsamples = 3\nvalue = 0.173", fillcolor="#f8decb"] ;
360 -> 361 ;
362 [label="node #362\nsquared_error = 0.0\nsamples = 2\nvalue = 0.17", fillcolor="#f8dfcc"] ;
361 -> 362 ;
363 [label="node #363\nsquared_error = -0.0\nsamples = 1\nvalue = 0.18", fillcolor="#f8ddc9"] ;
361 -> 363 ;
364 [label="node #364\nperson_home_ownership_RENT <= 0.5\nsquared_error = 0.0\nsamples = 7\nvalue = 0.2", fillcolor="#f7d9c3"] ;
360 -> 364 ;
365 [label="node #365\nsquared_error = 0.0\nsamples = 1\nvalue = 0.19", fillcolor="#f8dbc6"] ;
364 -> 365 ;
366 [label="node #366\nperson_education <= 0.5\nsquared_error = 0.0\nsamples = 6\nvalue = 0.202", fillcolor="#f7d8c2"] ;
364 -> 366 ;
367 [label="node #367\nsquared_error = 0.0\nsamples = 1\nvalue = 0.21", fillcolor="#f7d7c0"] ;
366 -> 367 ;
368 [label="node #368\nsquared_error = 0.0\nsamples = 5\nvalue = 0.2", fillcolor="#f7d9c3"] ;
366 -> 368 ;
369 [label="node #369\nperson_income <= 16289.0\nsquared_error = 0.0\nsamples = 46\nvalue = 0.243", fillcolor="#f5d1b6"] ;
343 -> 369 ;
370 [label="node #370\nloan_amnt <= 4128.5\nsquared_error = 0.0\nsamples = 21\nvalue = 0.261", fillcolor="#f5cdb1"] ;
369 -> 370 ;
371 [label="node #371\nperson_income <= 15687.5\nsquared_error = 0.0\nsamples = 16\nvalue = 0.257", fillcolor="#f5ceb2"] ;
370 -> 371 ;
372 [label="node #372\nsquared_error = 0.0\nsamples = 12\nvalue = 0.26", fillcolor="#f5cdb1"] ;
371 -> 372 ;
373 [label="node #373\nsquared_error = 0.0\nsamples = 4\nvalue = 0.25", fillcolor="#f5cfb4"] ;
371 -> 373 ;
374 [label="node #374\ncredit_score <= 662.0\nsquared_error = 0.0\nsamples = 5\nvalue = 0.272", fillcolor="#f4cbad"] ;
370 -> 374 ;
375 [label="node #375\nsquared_error = 0.0\nsamples = 4\nvalue = 0.27", fillcolor="#f4cbae"] ;
374 -> 375 ;
376 [label="node #376\nsquared_error = 0.0\nsamples = 1\nvalue = 0.28", fillcolor="#f4caab"] ;
374 -> 376 ;
377 [label="node #377\nperson_income <= 17352.0\nsquared_error = 0.0\nsamples = 25\nvalue = 0.227", fillcolor="#f6d4bb"] ;
369 -> 377 ;
378 [label="node #378\nsquared_error = -0.0\nsamples = 8\nvalue = 0.24", fillcolor="#f6d1b7"] ;
377 -> 378 ;
379 [label="node #379\nperson_income <= 17871.0\nsquared_error = 0.0\nsamples = 17\nvalue = 0.221", fillcolor="#f6d5bd"] ;
377 -> 379 ;
380 [label="node #380\nsquared_error = 0.0\nsamples = 1\nvalue = 0.23", fillcolor="#f6d3ba"] ;
379 -> 380 ;
381 [label="node #381\nloan_amnt <= 4125.0\nsquared_error = 0.0\nsamples = 16\nvalue = 0.221", fillcolor="#f6d5bd"] ;
379 -> 381 ;
382 [label="node #382\nsquared_error = -0.0\nsamples = 15\nvalue = 0.22", fillcolor="#f6d5bd"] ;
381 -> 382 ;
383 [label="node #383\nsquared_error = 0.0\nsamples = 1\nvalue = 0.23", fillcolor="#f6d3ba"] ;
381 -> 383 ;
384 [label="node #384\nloan_amnt <= 3369.5\nsquared_error = 0.001\nsamples = 483\nvalue = 0.145", fillcolor="#f9e3d4"] ;
230 -> 384 ;
385 [label="node #385\nloan_status <= 0.5\nsquared_error = 0.0\nsamples = 272\nvalue = 0.127", fillcolor="#fae7d9"] ;
384 -> 385 ;
386 [label="node #386\nloan_amnt <= 2619.0\nsquared_error = 0.0\nsamples = 95\nvalue = 0.113", fillcolor="#fbe9dd"] ;
385 -> 386 ;
387 [label="node #387\nperson_income <= 23698.0\nsquared_error = 0.0\nsamples = 49\nvalue = 0.108", fillcolor="#fbeadf"] ;
386 -> 387 ;
388 [label="node #388\nperson_income <= 21497.0\nsquared_error = 0.0\nsamples = 31\nvalue = 0.113", fillcolor="#fbe9dd"] ;
387 -> 388 ;
389 [label="node #389\nsquared_error = -0.0\nsamples = 10\nvalue = 0.12", fillcolor="#fae8db"] ;
388 -> 389 ;
390 [label="node #390\nloan_amnt <= 2522.0\nsquared_error = 0.0\nsamples = 21\nvalue = 0.11", fillcolor="#fbeade"] ;
388 -> 390 ;
391 [label="node #391\nperson_income <= 22883.0\nsquared_error = 0.0\nsamples = 20\nvalue = 0.11", fillcolor="#fbeade"] ;
390 -> 391 ;
392 [label="node #392\nsquared_error = -0.0\nsamples = 17\nvalue = 0.11", fillcolor="#fbeade"] ;
391 -> 392 ;
393 [label="node #393\nprevious_loan_defaults_on_file <= 0.5\nsquared_error = 0.0\nsamples = 3\nvalue = 0.107", fillcolor="#fbebdf"] ;
391 -> 393 ;
394 [label="node #394\nsquared_error = 0.0\nsamples = 1\nvalue = 0.1", fillcolor="#fbece1"] ;
393 -> 394 ;
395 [label="node #395\nsquared_error = 0.0\nsamples = 2\nvalue = 0.11", fillcolor="#fbeade"] ;
393 -> 395 ;
396 [label="node #396\nsquared_error = -0.0\nsamples = 1\nvalue = 0.12", fillcolor="#fae8db"] ;
390 -> 396 ;
397 [label="node #397\nperson_income <= 25343.5\nsquared_error = 0.0\nsamples = 18\nvalue = 0.099", fillcolor="#fbece1"] ;
387 -> 397 ;
398 [label="node #398\nsquared_error = -0.0\nsamples = 15\nvalue = 0.1", fillcolor="#fbece1"] ;
397 -> 398 ;
399 [label="node #399\ncredit_score <= 653.5\nsquared_error = 0.0\nsamples = 3\nvalue = 0.093", fillcolor="#fbede3"] ;
397 -> 399 ;
400 [label="node #400\nsquared_error = -0.0\nsamples = 2\nvalue = 0.09", fillcolor="#fbeee4"] ;
399 -> 400 ;
401 [label="node #401\nsquared_error = 0.0\nsamples = 1\nvalue = 0.1", fillcolor="#fbece1"] ;
399 -> 401 ;
402 [label="node #402\nperson_income <= 26140.0\nsquared_error = 0.0\nsamples = 46\nvalue = 0.119", fillcolor="#fae8db"] ;
386 -> 402 ;
403 [label="node #403\nloan_amnt <= 3173.0\nsquared_error = 0.0\nsamples = 40\nvalue = 0.12", fillcolor="#fae8db"] ;
402 -> 403 ;
404 [label="node #404\nloan_amnt <= 2648.5\nsquared_error = 0.0\nsamples = 36\nvalue = 0.119", fillcolor="#fae8db"] ;
403 -> 404 ;
405 [label="node #405\nperson_income <= 23228.5\nsquared_error = 0.0\nsamples = 2\nvalue = 0.115", fillcolor="#fae9dd"] ;
404 -> 405 ;
406 [label="node #406\nsquared_error = 0.0\nsamples = 1\nvalue = 0.12", fillcolor="#fae8db"] ;
405 -> 406 ;
407 [label="node #407\nsquared_error = 0.0\nsamples = 1\nvalue = 0.11", fillcolor="#fbeade"] ;
405 -> 407 ;
408 [label="node #408\nloan_intent_DEBTCONSOLIDATION <= 0.5\nsquared_error = 0.0\nsamples = 34\nvalue = 0.12", fillcolor="#fae8db"] ;
404 -> 408 ;
409 [label="node #409\nsquared_error = -0.0\nsamples = 29\nvalue = 0.12", fillcolor="#fae8db"] ;
408 -> 409 ;
410 [label="node #410\nloan_amnt <= 2946.0\nsquared_error = 0.0\nsamples = 5\nvalue = 0.118", fillcolor="#fae8dc"] ;
408 -> 410 ;
411 [label="node #411\nsquared_error = 0.0\nsamples = 1\nvalue = 0.11", fillcolor="#fbeade"] ;
410 -> 411 ;
412 [label="node #412\nsquared_error = 0.0\nsamples = 4\nvalue = 0.12", fillcolor="#fae8db"] ;
410 -> 412 ;
413 [label="node #413\ncb_person_cred_hist_length <= 3.0\nsquared_error = 0.0\nsamples = 4\nvalue = 0.128", fillcolor="#fae7d9"] ;
403 -> 413 ;
414 [label="node #414\nsquared_error = 0.0\nsamples = 1\nvalue = 0.12", fillcolor="#fae8db"] ;
413 -> 414 ;
415 [label="node #415\nsquared_error = 0.0\nsamples = 3\nvalue = 0.13", fillcolor="#fae6d8"] ;
413 -> 415 ;
416 [label="node #416\nsquared_error = -0.0\nsamples = 6\nvalue = 0.11", fillcolor="#fbeade"] ;
402 -> 416 ;
417 [label="node #417\nperson_income <= 20452.0\nsquared_error = 0.0\nsamples = 177\nvalue = 0.135", fillcolor="#fae5d6"] ;
385 -> 417 ;
418 [label="node #418\nloan_amnt <= 2852.5\nsquared_error = 0.0\nsamples = 57\nvalue = 0.147", fillcolor="#f9e3d3"] ;
417 -> 418 ;
419 [label="node #419\nloan_amnt <= 2560.0\nsquared_error = 0.0\nsamples = 27\nvalue = 0.136", fillcolor="#fae5d6"] ;
418 -> 419 ;
420 [label="node #420\nperson_age <= 43.0\nsquared_error = 0.0\nsamples = 11\nvalue = 0.128", fillcolor="#fae7d9"] ;
419 -> 420 ;
421 [label="node #421\nsquared_error = 0.0\nsamples = 8\nvalue = 0.13", fillcolor="#fae6d8"] ;
420 -> 421 ;
422 [label="node #422\nloan_intent_MEDICAL <= 0.5\nsquared_error = 0.0\nsamples = 3\nvalue = 0.123", fillcolor="#fae7da"] ;
420 -> 422 ;
423 [label="node #423\nsquared_error = 0.0\nsamples = 2\nvalue = 0.12", fillcolor="#fae8db"] ;
422 -> 423 ;
424 [label="node #424\nsquared_error = -0.0\nsamples = 1\nvalue = 0.13", fillcolor="#fae6d8"] ;
422 -> 424 ;
425 [label="node #425\ncb_person_cred_hist_length <= 2.5\nsquared_error = 0.0\nsamples = 16\nvalue = 0.141", fillcolor="#f9e4d5"] ;
419 -> 425 ;
426 [label="node #426\nsquared_error = 0.0\nsamples = 1\nvalue = 0.13", fillcolor="#fae6d8"] ;
425 -> 426 ;
427 [label="node #427\nperson_income <= 18664.0\nsquared_error = 0.0\nsamples = 15\nvalue = 0.141", fillcolor="#f9e4d5"] ;
425 -> 427 ;
428 [label="node #428\nsquared_error = 0.0\nsamples = 1\nvalue = 0.15", fillcolor="#f9e2d2"] ;
427 -> 428 ;
429 [label="node #429\nperson_education <= 2.5\nsquared_error = 0.0\nsamples = 14\nvalue = 0.141", fillcolor="#f9e4d5"] ;
427 -> 429 ;
430 [label="node #430\nsquared_error = -0.0\nsamples = 13\nvalue = 0.14", fillcolor="#f9e4d5"] ;
429 -> 430 ;
431 [label="node #431\nsquared_error = 0.0\nsamples = 1\nvalue = 0.15", fillcolor="#f9e2d2"] ;
429 -> 431 ;
432 [label="node #432\nperson_income <= 19711.0\nsquared_error = 0.0\nsamples = 30\nvalue = 0.158", fillcolor="#f9e1d0"] ;
418 -> 432 ;
433 [label="node #433\nloan_amnt <= 3160.0\nsquared_error = 0.0\nsamples = 14\nvalue = 0.163", fillcolor="#f9e0ce"] ;
432 -> 433 ;
434 [label="node #434\nsquared_error = -0.0\nsamples = 8\nvalue = 0.16", fillcolor="#f9e0cf"] ;
433 -> 434 ;
435 [label="node #435\nloan_int_rate <= 13.49\nsquared_error = 0.0\nsamples = 6\nvalue = 0.167", fillcolor="#f8dfcd"] ;
433 -> 435 ;
436 [label="node #436\nsquared_error = 0.0\nsamples = 4\nvalue = 0.17", fillcolor="#f8dfcc"] ;
435 -> 436 ;
437 [label="node #437\nsquared_error = -0.0\nsamples = 2\nvalue = 0.16", fillcolor="#f9e0cf"] ;
435 -> 437 ;
438 [label="node #438\nloan_amnt <= 3124.0\nsquared_error = 0.0\nsamples = 16\nvalue = 0.154", fillcolor="#f9e2d1"] ;
432 -> 438 ;
439 [label="node #439\nsquared_error = 0.0\nsamples = 10\nvalue = 0.15", fillcolor="#f9e2d2"] ;
438 -> 439 ;
440 [label="node #440\nsquared_error = 0.0\nsamples = 6\nvalue = 0.16", fillcolor="#f9e0cf"] ;
438 -> 440 ;
441 [label="node #441\nloan_amnt <= 2614.0\nsquared_error = 0.0\nsamples = 120\nvalue = 0.129", fillcolor="#fae6d8"] ;
417 -> 441 ;
442 [label="node #442\nperson_income <= 23432.0\nsquared_error = 0.0\nsamples = 15\nvalue = 0.109", fillcolor="#fbeade"] ;
441 -> 442 ;
443 [label="node #443\nperson_income <= 21286.0\nsquared_error = 0.0\nsamples = 9\nvalue = 0.114", fillcolor="#fae9dd"] ;
442 -> 443 ;
444 [label="node #444\nsquared_error = -0.0\nsamples = 4\nvalue = 0.12", fillcolor="#fae8db"] ;
443 -> 444 ;
445 [label="node #445\nsquared_error = 0.0\nsamples = 5\nvalue = 0.11", fillcolor="#fbeade"] ;
443 -> 445 ;
446 [label="node #446\nsquared_error = -0.0\nsamples = 6\nvalue = 0.1", fillcolor="#fbece1"] ;
442 -> 446 ;
447 [label="node #447\nperson_income <= 24001.0\nsquared_error = 0.0\nsamples = 105\nvalue = 0.132", fillcolor="#fae6d7"] ;
441 -> 447 ;
448 [label="node #448\nloan_amnt <= 3012.5\nsquared_error = 0.0\nsamples = 79\nvalue = 0.135", fillcolor="#fae5d7"] ;
447 -> 448 ;
449 [label="node #449\nperson_income <= 22253.5\nsquared_error = 0.0\nsamples = 57\nvalue = 0.132", fillcolor="#fae6d7"] ;
448 -> 449 ;
450 [label="node #450\nloan_amnt <= 2937.5\nsquared_error = 0.0\nsamples = 18\nvalue = 0.136", fillcolor="#fae5d6"] ;
449 -> 450 ;
451 [label="node #451\nsquared_error = 0.0\nsamples = 7\nvalue = 0.13", fillcolor="#fae6d8"] ;
450 -> 451 ;
452 [label="node #452\nsquared_error = 0.0\nsamples = 11\nvalue = 0.14", fillcolor="#f9e4d5"] ;
450 -> 452 ;
453 [label="node #453\nloan_amnt <= 2872.5\nsquared_error = 0.0\nsamples = 39\nvalue = 0.13", fillcolor="#fae6d8"] ;
449 -> 453 ;
454 [label="node #454\nsquared_error = 0.0\nsamples = 1\nvalue = 0.12", fillcolor="#fae8db"] ;
453 -> 454 ;
455 [label="node #455\nsquared_error = 0.0\nsamples = 38\nvalue = 0.13", fillcolor="#fae6d8"] ;
453 -> 455 ;
456 [label="node #456\nperson_income <= 21923.5\nsquared_error = 0.0\nsamples = 22\nvalue = 0.143", fillcolor="#f9e4d4"] ;
448 -> 456 ;
457 [label="node #457\ncredit_score <= 640.0\nsquared_error = 0.0\nsamples = 5\nvalue = 0.152", fillcolor="#f9e2d1"] ;
456 -> 457 ;
458 [label="node #458\nsquared_error = -0.0\nsamples = 4\nvalue = 0.15", fillcolor="#f9e2d2"] ;
457 -> 458 ;
459 [label="node #459\nsquared_error = -0.0\nsamples = 1\nvalue = 0.16", fillcolor="#f9e0cf"] ;
457 -> 459 ;
460 [label="node #460\nperson_income <= 23980.5\nsquared_error = 0.0\nsamples = 17\nvalue = 0.14", fillcolor="#f9e4d5"] ;
456 -> 460 ;
461 [label="node #461\nloan_amnt <= 3285.0\nsquared_error = 0.0\nsamples = 16\nvalue = 0.141", fillcolor="#f9e4d5"] ;
460 -> 461 ;
462 [label="node #462\nsquared_error = -0.0\nsamples = 14\nvalue = 0.14", fillcolor="#f9e4d5"] ;
461 -> 462 ;
463 [label="node #463\ncb_person_cred_hist_length <= 7.0\nsquared_error = 0.0\nsamples = 2\nvalue = 0.145", fillcolor="#f9e3d4"] ;
461 -> 463 ;
464 [label="node #464\nsquared_error = 0.0\nsamples = 1\nvalue = 0.14", fillcolor="#f9e4d5"] ;
463 -> 464 ;
465 [label="node #465\nsquared_error = -0.0\nsamples = 1\nvalue = 0.15", fillcolor="#f9e2d2"] ;
463 -> 465 ;
466 [label="node #466\nsquared_error = 0.0\nsamples = 1\nvalue = 0.13", fillcolor="#fae6d8"] ;
460 -> 466 ;
467 [label="node #467\nloan_amnt <= 3144.5\nsquared_error = 0.0\nsamples = 26\nvalue = 0.124", fillcolor="#fae7da"] ;
447 -> 467 ;
468 [label="node #468\nperson_income <= 25560.0\nsquared_error = 0.0\nsamples = 15\nvalue = 0.119", fillcolor="#fae8db"] ;
467 -> 468 ;
469 [label="node #469\nsquared_error = -0.0\nsamples = 14\nvalue = 0.12", fillcolor="#fae8db"] ;
468 -> 469 ;
470 [label="node #470\nsquared_error = -0.0\nsamples = 1\nvalue = 0.11", fillcolor="#fbeade"] ;
468 -> 470 ;
471 [label="node #471\nperson_home_ownership_OWN <= 0.5\nsquared_error = 0.0\nsamples = 11\nvalue = 0.131", fillcolor="#fae6d8"] ;
467 -> 471 ;
472 [label="node #472\nsquared_error = 0.0\nsamples = 10\nvalue = 0.13", fillcolor="#fae6d8"] ;
471 -> 472 ;
473 [label="node #473\nsquared_error = -0.0\nsamples = 1\nvalue = 0.14", fillcolor="#f9e4d5"] ;
471 -> 473 ;
474 [label="node #474\nperson_income <= 22655.5\nsquared_error = 0.0\nsamples = 211\nvalue = 0.167", fillcolor="#f8dfcd"] ;
384 -> 474 ;
475 [label="node #475\nperson_income <= 21032.0\nsquared_error = 0.0\nsamples = 73\nvalue = 0.187", fillcolor="#f8dbc7"] ;
474 -> 475 ;
476 [label="node #476\nloan_amnt <= 3950.0\nsquared_error = 0.0\nsamples = 34\nvalue = 0.199", fillcolor="#f7d9c3"] ;
475 -> 476 ;
477 [label="node #477\nloan_amnt <= 3550.0\nsquared_error = 0.0\nsamples = 12\nvalue = 0.187", fillcolor="#f8dbc7"] ;
476 -> 477 ;
478 [label="node #478\nloan_int_rate <= 13.235\nsquared_error = 0.0\nsamples = 3\nvalue = 0.173", fillcolor="#f8decb"] ;
477 -> 478 ;
479 [label="node #479\nsquared_error = 0.0\nsamples = 2\nvalue = 0.17", fillcolor="#f8dfcc"] ;
478 -> 479 ;
480 [label="node #480\nsquared_error = -0.0\nsamples = 1\nvalue = 0.18", fillcolor="#f8ddc9"] ;
478 -> 480 ;
481 [label="node #481\nperson_age <= 34.5\nsquared_error = 0.0\nsamples = 9\nvalue = 0.191", fillcolor="#f7dbc6"] ;
477 -> 481 ;
482 [label="node #482\nloan_int_rate <= 16.545\nsquared_error = 0.0\nsamples = 7\nvalue = 0.189", fillcolor="#f8dbc6"] ;
481 -> 482 ;
483 [label="node #483\nsquared_error = 0.0\nsamples = 6\nvalue = 0.19", fillcolor="#f8dbc6"] ;
482 -> 483 ;
484 [label="node #484\nsquared_error = 0.0\nsamples = 1\nvalue = 0.18", fillcolor="#f8ddc9"] ;
482 -> 484 ;
485 [label="node #485\nsquared_error = 0.0\nsamples = 2\nvalue = 0.2", fillcolor="#f7d9c3"] ;
481 -> 485 ;
486 [label="node #486\nperson_income <= 19618.0\nsquared_error = 0.0\nsamples = 22\nvalue = 0.206", fillcolor="#f7d8c1"] ;
476 -> 486 ;
487 [label="node #487\ncredit_score <= 577.5\nsquared_error = 0.0\nsamples = 10\nvalue = 0.212", fillcolor="#f7d7bf"] ;
486 -> 487 ;
488 [label="node #488\nsquared_error = 0.0\nsamples = 2\nvalue = 0.22", fillcolor="#f6d5bd"] ;
487 -> 488 ;
489 [label="node #489\nsquared_error = -0.0\nsamples = 8\nvalue = 0.21", fillcolor="#f7d7c0"] ;
487 -> 489 ;
490 [label="node #490\nloan_amnt <= 4179.5\nsquared_error = 0.0\nsamples = 12\nvalue = 0.201", fillcolor="#f7d9c3"] ;
486 -> 490 ;
491 [label="node #491\nperson_income <= 20746.5\nsquared_error = 0.0\nsamples = 9\nvalue = 0.198", fillcolor="#f7d9c4"] ;
490 -> 491 ;
492 [label="node #492\nsquared_error = 0.0\nsamples = 7\nvalue = 0.2", fillcolor="#f7d9c3"] ;
491 -> 492 ;
493 [label="node #493\nsquared_error = -0.0\nsamples = 2\nvalue = 0.19", fillcolor="#f8dbc6"] ;
491 -> 493 ;
494 [label="node #494\nsquared_error = 0.0\nsamples = 3\nvalue = 0.21", fillcolor="#f7d7c0"] ;
490 -> 494 ;
495 [label="node #495\nloan_amnt <= 3833.5\nsquared_error = 0.0\nsamples = 39\nvalue = 0.176", fillcolor="#f8ddca"] ;
475 -> 495 ;
496 [label="node #496\nloan_amnt <= 3650.0\nsquared_error = 0.0\nsamples = 11\nvalue = 0.163", fillcolor="#f9e0ce"] ;
495 -> 496 ;
497 [label="node #497\nperson_income <= 21129.0\nsquared_error = 0.0\nsamples = 9\nvalue = 0.161", fillcolor="#f9e0cf"] ;
496 -> 497 ;
498 [label="node #498\nsquared_error = 0.0\nsamples = 1\nvalue = 0.17", fillcolor="#f8dfcc"] ;
497 -> 498 ;
499 [label="node #499\nsquared_error = 0.0\nsamples = 8\nvalue = 0.16", fillcolor="#f9e0cf"] ;
497 -> 499 ;
500 [label="node #500\nsquared_error = 0.0\nsamples = 2\nvalue = 0.17", fillcolor="#f8dfcc"] ;
496 -> 500 ;
501 [label="node #501\nperson_income <= 21548.5\nsquared_error = 0.0\nsamples = 28\nvalue = 0.182", fillcolor="#f8dcc8"] ;
495 -> 501 ;
502 [label="node #502\nsquared_error = 0.0\nsamples = 5\nvalue = 0.19", fillcolor="#f8dbc6"] ;
501 -> 502 ;
503 [label="node #503\nsquared_error = 0.0\nsamples = 23\nvalue = 0.18", fillcolor="#f8ddc9"] ;
501 -> 503 ;
504 [label="node #504\nloan_amnt <= 3984.0\nsquared_error = 0.0\nsamples = 138\nvalue = 0.156", fillcolor="#f9e1d0"] ;
474 -> 504 ;
505 [label="node #505\nperson_income <= 24871.5\nsquared_error = 0.0\nsamples = 64\nvalue = 0.147", fillcolor="#f9e3d3"] ;
504 -> 505 ;
506 [label="node #506\nloan_amnt <= 3738.0\nsquared_error = 0.0\nsamples = 27\nvalue = 0.151", fillcolor="#f9e2d2"] ;
505 -> 506 ;
507 [label="node #507\nloan_intent_EDUCATION <= 0.5\nsquared_error = 0.0\nsamples = 25\nvalue = 0.15", fillcolor="#f9e2d2"] ;
506 -> 507 ;
508 [label="node #508\ncredit_score <= 512.0\nsquared_error = 0.0\nsamples = 24\nvalue = 0.15", fillcolor="#f9e2d2"] ;
507 -> 508 ;
509 [label="node #509\nsquared_error = 0.0\nsamples = 1\nvalue = 0.16", fillcolor="#f9e0cf"] ;
508 -> 509 ;
510 [label="node #510\nprevious_loan_defaults_on_file <= 0.5\nsquared_error = 0.0\nsamples = 23\nvalue = 0.15", fillcolor="#f9e2d2"] ;
508 -> 510 ;
511 [label="node #511\nsquared_error = 0.0\nsamples = 21\nvalue = 0.15", fillcolor="#f9e2d2"] ;
510 -> 511 ;
512 [label="node #512\nperson_emp_exp <= 1.5\nsquared_error = 0.0\nsamples = 2\nvalue = 0.145", fillcolor="#f9e3d4"] ;
510 -> 512 ;
513 [label="node #513\nsquared_error = 0.0\nsamples = 1\nvalue = 0.14", fillcolor="#f9e4d5"] ;
512 -> 513 ;
514 [label="node #514\nsquared_error = -0.0\nsamples = 1\nvalue = 0.15", fillcolor="#f9e2d2"] ;
512 -> 514 ;
515 [label="node #515\nsquared_error = -0.0\nsamples = 1\nvalue = 0.16", fillcolor="#f9e0cf"] ;
507 -> 515 ;
516 [label="node #516\nsquared_error = -0.0\nsamples = 2\nvalue = 0.16", fillcolor="#f9e0cf"] ;
506 -> 516 ;
517 [label="node #517\nloan_amnt <= 3775.0\nsquared_error = 0.0\nsamples = 37\nvalue = 0.144", fillcolor="#f9e4d4"] ;
505 -> 517 ;
518 [label="node #518\nloan_amnt <= 3462.5\nsquared_error = 0.0\nsamples = 25\nvalue = 0.14", fillcolor="#f9e4d5"] ;
517 -> 518 ;
519 [label="node #519\nsquared_error = 0.0\nsamples = 1\nvalue = 0.13", fillcolor="#fae6d8"] ;
518 -> 519 ;
520 [label="node #520\nperson_home_ownership_MORTGAGE <= 0.5\nsquared_error = 0.0\nsamples = 24\nvalue = 0.14", fillcolor="#f9e4d5"] ;
518 -> 520 ;
521 [label="node #521\nsquared_error = -0.0\nsamples = 20\nvalue = 0.14", fillcolor="#f9e4d5"] ;
520 -> 521 ;
522 [label="node #522\nloan_amnt <= 3612.5\nsquared_error = 0.0\nsamples = 4\nvalue = 0.143", fillcolor="#f9e4d4"] ;
520 -> 522 ;
523 [label="node #523\nsquared_error = 0.0\nsamples = 3\nvalue = 0.14", fillcolor="#f9e4d5"] ;
522 -> 523 ;
524 [label="node #524\nsquared_error = -0.0\nsamples = 1\nvalue = 0.15", fillcolor="#f9e2d2"] ;
522 -> 524 ;
525 [label="node #525\nperson_income <= 25330.5\nsquared_error = 0.0\nsamples = 12\nvalue = 0.152", fillcolor="#f9e2d2"] ;
517 -> 525 ;
526 [label="node #526\nperson_home_ownership_OWN <= 0.5\nsquared_error = 0.0\nsamples = 4\nvalue = 0.158", fillcolor="#f9e1d0"] ;
525 -> 526 ;
527 [label="node #527\nsquared_error = 0.0\nsamples = 3\nvalue = 0.16", fillcolor="#f9e0cf"] ;
526 -> 527 ;
528 [label="node #528\nsquared_error = -0.0\nsamples = 1\nvalue = 0.15", fillcolor="#f9e2d2"] ;
526 -> 528 ;
529 [label="node #529\nperson_income <= 26408.5\nsquared_error = 0.0\nsamples = 8\nvalue = 0.149", fillcolor="#f9e3d2"] ;
525 -> 529 ;
530 [label="node #530\nsquared_error = 0.0\nsamples = 7\nvalue = 0.15", fillcolor="#f9e2d2"] ;
529 -> 530 ;
531 [label="node #531\nsquared_error = -0.0\nsamples = 1\nvalue = 0.14", fillcolor="#f9e4d5"] ;
529 -> 531 ;
532 [label="node #532\nperson_income <= 24240.0\nsquared_error = 0.0\nsamples = 74\nvalue = 0.164", fillcolor="#f9e0ce"] ;
504 -> 532 ;
533 [label="node #533\nperson_income <= 23612.5\nsquared_error = 0.0\nsamples = 29\nvalue = 0.172", fillcolor="#f8decb"] ;
532 -> 533 ;
534 [label="node #534\nperson_home_ownership_OWN <= 0.5\nsquared_error = 0.0\nsamples = 6\nvalue = 0.178", fillcolor="#f8ddca"] ;
533 -> 534 ;
535 [label="node #535\nsquared_error = 0.0\nsamples = 5\nvalue = 0.18", fillcolor="#f8ddc9"] ;
534 -> 535 ;
536 [label="node #536\nsquared_error = -0.0\nsamples = 1\nvalue = 0.17", fillcolor="#f8dfcc"] ;
534 -> 536 ;
537 [label="node #537\nloan_amnt <= 4137.5\nsquared_error = 0.0\nsamples = 23\nvalue = 0.17", fillcolor="#f8decc"] ;
533 -> 537 ;
538 [label="node #538\nsquared_error = 0.0\nsamples = 22\nvalue = 0.17", fillcolor="#f8dfcc"] ;
537 -> 538 ;
539 [label="node #539\nsquared_error = 0.0\nsamples = 1\nvalue = 0.18", fillcolor="#f8ddc9"] ;
537 -> 539 ;
540 [label="node #540\nperson_income <= 25901.5\nsquared_error = 0.0\nsamples = 45\nvalue = 0.159", fillcolor="#f9e1cf"] ;
532 -> 540 ;
541 [label="node #541\nloan_amnt <= 4225.0\nsquared_error = 0.0\nsamples = 36\nvalue = 0.161", fillcolor="#f9e0cf"] ;
540 -> 541 ;
542 [label="node #542\nsquared_error = -0.0\nsamples = 34\nvalue = 0.16", fillcolor="#f9e0cf"] ;
541 -> 542 ;
543 [label="node #543\nsquared_error = -0.0\nsamples = 2\nvalue = 0.17", fillcolor="#f8dfcc"] ;
541 -> 543 ;
544 [label="node #544\nloan_intent_PERSONAL <= 0.5\nsquared_error = 0.0\nsamples = 9\nvalue = 0.152", fillcolor="#f9e2d1"] ;
540 -> 544 ;
545 [label="node #545\nsquared_error = -0.0\nsamples = 7\nvalue = 0.15", fillcolor="#f9e2d2"] ;
544 -> 545 ;
546 [label="node #546\nsquared_error = 0.0\nsamples = 2\nvalue = 0.16", fillcolor="#f9e0cf"] ;
544 -> 546 ;
547 [label="node #547\nloan_amnt <= 2639.5\nsquared_error = 0.001\nsamples = 2661\nvalue = 0.075", fillcolor="#fcf1e8"] ;
3 -> 547 ;
548 [label="node #548\nloan_amnt <= 1855.5\nsquared_error = 0.0\nsamples = 1217\nvalue = 0.051", fillcolor="#fdf5f0"] ;
547 -> 548 ;
549 [label="node #549\nloan_amnt <= 1254.5\nsquared_error = 0.0\nsamples = 561\nvalue = 0.038", fillcolor="#fef8f4"] ;
548 -> 549 ;
550 [label="node #550\nperson_income <= 39949.5\nsquared_error = 0.0\nsamples = 222\nvalue = 0.029", fillcolor="#fefaf6"] ;
549 -> 550 ;
551 [label="node #551\nperson_income <= 34349.5\nsquared_error = 0.0\nsamples = 146\nvalue = 0.032", fillcolor="#fef9f5"] ;
550 -> 551 ;
552 [label="node #552\nloan_amnt <= 1060.5\nsquared_error = 0.0\nsamples = 59\nvalue = 0.034", fillcolor="#fef8f5"] ;
551 -> 552 ;
553 [label="node #553\nperson_income <= 28960.5\nsquared_error = 0.0\nsamples = 39\nvalue = 0.031", fillcolor="#fef9f6"] ;
552 -> 553 ;
554 [label="node #554\nloan_amnt <= 975.0\nsquared_error = 0.0\nsamples = 7\nvalue = 0.039", fillcolor="#fdf8f3"] ;
553 -> 554 ;
555 [label="node #555\nsquared_error = 0.0\nsamples = 1\nvalue = 0.03", fillcolor="#fef9f6"] ;
554 -> 555 ;
556 [label="node #556\nsquared_error = 0.0\nsamples = 6\nvalue = 0.04", fillcolor="#fdf7f3"] ;
554 -> 556 ;
557 [label="node #557\nloan_amnt <= 750.0\nsquared_error = 0.0\nsamples = 32\nvalue = 0.03", fillcolor="#fef9f6"] ;
553 -> 557 ;
558 [label="node #558\nsquared_error = 0.0\nsamples = 1\nvalue = 0.02", fillcolor="#fefbf9"] ;
557 -> 558 ;
559 [label="node #559\nsquared_error = -0.0\nsamples = 31\nvalue = 0.03", fillcolor="#fef9f6"] ;
557 -> 559 ;
560 [label="node #560\nsquared_error = -0.0\nsamples = 20\nvalue = 0.04", fillcolor="#fdf7f3"] ;
552 -> 560 ;
561 [label="node #561\nloan_amnt <= 1243.5\nsquared_error = 0.0\nsamples = 87\nvalue = 0.03", fillcolor="#fef9f6"] ;
551 -> 561 ;
562 [label="node #562\nsquared_error = 0.0\nsamples = 84\nvalue = 0.03", fillcolor="#fef9f6"] ;
561 -> 562 ;
563 [label="node #563\nperson_emp_exp <= 6.5\nsquared_error = 0.0\nsamples = 3\nvalue = 0.033", fillcolor="#fef9f5"] ;
561 -> 563 ;
564 [label="node #564\nsquared_error = 0.0\nsamples = 1\nvalue = 0.04", fillcolor="#fdf7f3"] ;
563 -> 564 ;
565 [label="node #565\nsquared_error = -0.0\nsamples = 2\nvalue = 0.03", fillcolor="#fef9f6"] ;
563 -> 565 ;
566 [label="node #566\nloan_amnt <= 1084.5\nsquared_error = 0.0\nsamples = 76\nvalue = 0.023", fillcolor="#fefbf8"] ;
550 -> 566 ;
567 [label="node #567\nsquared_error = -0.0\nsamples = 56\nvalue = 0.02", fillcolor="#fefbf9"] ;
566 -> 567 ;
568 [label="node #568\nperson_income <= 44909.0\nsquared_error = 0.0\nsamples = 20\nvalue = 0.03", fillcolor="#fef9f6"] ;
566 -> 568 ;
569 [label="node #569\nsquared_error = -0.0\nsamples = 18\nvalue = 0.03", fillcolor="#fef9f6"] ;
568 -> 569 ;
570 [label="node #570\nloan_intent_MEDICAL <= 0.5\nsquared_error = 0.0\nsamples = 2\nvalue = 0.025", fillcolor="#fefaf8"] ;
568 -> 570 ;
571 [label="node #571\nsquared_error = 0.0\nsamples = 1\nvalue = 0.03", fillcolor="#fef9f6"] ;
570 -> 571 ;
572 [label="node #572\nsquared_error = -0.0\nsamples = 1\nvalue = 0.02", fillcolor="#fefbf9"] ;
570 -> 572 ;
573 [label="node #573\nperson_income <= 33507.5\nsquared_error = 0.0\nsamples = 339\nvalue = 0.044", fillcolor="#fdf7f2"] ;
549 -> 573 ;
574 [label="node #574\nloan_amnt <= 1725.0\nsquared_error = 0.0\nsamples = 123\nvalue = 0.052", fillcolor="#fdf5ef"] ;
573 -> 574 ;
575 [label="node #575\nloan_amnt <= 1425.0\nsquared_error = 0.0\nsamples = 105\nvalue = 0.05", fillcolor="#fdf5f0"] ;
574 -> 575 ;
576 [label="node #576\nperson_income <= 29178.5\nsquared_error = 0.0\nsamples = 19\nvalue = 0.044", fillcolor="#fdf7f2"] ;
575 -> 576 ;
577 [label="node #577\nsquared_error = 0.0\nsamples = 5\nvalue = 0.05", fillcolor="#fdf5f0"] ;
576 -> 577 ;
578 [label="node #578\nloan_amnt <= 1368.0\nsquared_error = 0.0\nsamples = 14\nvalue = 0.042", fillcolor="#fdf7f2"] ;
576 -> 578 ;
579 [label="node #579\nsquared_error = 0.0\nsamples = 9\nvalue = 0.04", fillcolor="#fdf7f3"] ;
578 -> 579 ;
580 [label="node #580\nperson_income <= 31163.5\nsquared_error = 0.0\nsamples = 5\nvalue = 0.046", fillcolor="#fdf6f1"] ;
578 -> 580 ;
581 [label="node #581\nsquared_error = 0.0\nsamples = 3\nvalue = 0.05", fillcolor="#fdf5f0"] ;
580 -> 581 ;
582 [label="node #582\nsquared_error = -0.0\nsamples = 2\nvalue = 0.04", fillcolor="#fdf7f3"] ;
580 -> 582 ;
583 [label="node #583\nperson_income <= 28562.0\nsquared_error = 0.0\nsamples = 86\nvalue = 0.052", fillcolor="#fdf5f0"] ;
575 -> 583 ;
584 [label="node #584\nloan_amnt <= 1488.5\nsquared_error = 0.0\nsamples = 19\nvalue = 0.057", fillcolor="#fdf4ee"] ;
583 -> 584 ;
585 [label="node #585\nsquared_error = 0.0\nsamples = 4\nvalue = 0.05", fillcolor="#fdf5f0"] ;
584 -> 585 ;
586 [label="node #586\nloan_int_rate <= 6.76\nsquared_error = 0.0\nsamples = 15\nvalue = 0.059", fillcolor="#fdf4ed"] ;
584 -> 586 ;
587 [label="node #587\nsquared_error = 0.0\nsamples = 1\nvalue = 0.05", fillcolor="#fdf5f0"] ;
586 -> 587 ;
588 [label="node #588\nperson_age <= 21.5\nsquared_error = 0.0\nsamples = 14\nvalue = 0.059", fillcolor="#fdf4ed"] ;
586 -> 588 ;
589 [label="node #589\nsquared_error = 0.0\nsamples = 1\nvalue = 0.05", fillcolor="#fdf5f0"] ;
588 -> 589 ;
590 [label="node #590\nsquared_error = -0.0\nsamples = 13\nvalue = 0.06", fillcolor="#fdf4ed"] ;
588 -> 590 ;
591 [label="node #591\nperson_income <= 29183.0\nsquared_error = 0.0\nsamples = 67\nvalue = 0.05", fillcolor="#fdf5f0"] ;
583 -> 591 ;
592 [label="node #592\ncredit_score <= 675.5\nsquared_error = 0.0\nsamples = 4\nvalue = 0.053", fillcolor="#fdf5ef"] ;
591 -> 592 ;
593 [label="node #593\nsquared_error = -0.0\nsamples = 3\nvalue = 0.05", fillcolor="#fdf5f0"] ;
592 -> 593 ;
594 [label="node #594\nsquared_error = -0.0\nsamples = 1\nvalue = 0.06", fillcolor="#fdf4ed"] ;
592 -> 594 ;
595 [label="node #595\nsquared_error = 0.0\nsamples = 63\nvalue = 0.05", fillcolor="#fdf5f0"] ;
591 -> 595 ;
596 [label="node #596\nperson_emp_exp <= 12.5\nsquared_error = 0.0\nsamples = 18\nvalue = 0.06", fillcolor="#fdf4ed"] ;
574 -> 596 ;
597 [label="node #597\nperson_age <= 31.5\nsquared_error = 0.0\nsamples = 17\nvalue = 0.061", fillcolor="#fdf3ed"] ;
596 -> 597 ;
598 [label="node #598\nsquared_error = -0.0\nsamples = 16\nvalue = 0.06", fillcolor="#fdf4ed"] ;
597 -> 598 ;
599 [label="node #599\nsquared_error = -0.0\nsamples = 1\nvalue = 0.07", fillcolor="#fcf2ea"] ;
597 -> 599 ;
600 [label="node #600\nsquared_error = -0.0\nsamples = 1\nvalue = 0.05", fillcolor="#fdf5f0"] ;
596 -> 600 ;
601 [label="node #601\nperson_income <= 42875.5\nsquared_error = 0.0\nsamples = 216\nvalue = 0.039", fillcolor="#fdf8f3"] ;
573 -> 601 ;
602 [label="node #602\nloan_amnt <= 1788.5\nsquared_error = 0.0\nsamples = 152\nvalue = 0.041", fillcolor="#fdf7f3"] ;
601 -> 602 ;
603 [label="node #603\nloan_amnt <= 1329.0\nsquared_error = 0.0\nsamples = 127\nvalue = 0.04", fillcolor="#fdf7f3"] ;
602 -> 603 ;
604 [label="node #604\nsquared_error = 0.0\nsamples = 2\nvalue = 0.03", fillcolor="#fef9f6"] ;
603 -> 604 ;
605 [label="node #605\nloan_amnt <= 1592.5\nsquared_error = 0.0\nsamples = 125\nvalue = 0.04", fillcolor="#fdf7f3"] ;
603 -> 605 ;
606 [label="node #606\nloan_amnt <= 1404.5\nsquared_error = 0.0\nsamples = 95\nvalue = 0.04", fillcolor="#fdf7f3"] ;
605 -> 606 ;
607 [label="node #607\nperson_income <= 39424.0\nsquared_error = 0.0\nsamples = 10\nvalue = 0.038", fillcolor="#fef8f4"] ;
606 -> 607 ;
608 [label="node #608\nsquared_error = 0.0\nsamples = 8\nvalue = 0.04", fillcolor="#fdf7f3"] ;
607 -> 608 ;
609 [label="node #609\nsquared_error = -0.0\nsamples = 2\nvalue = 0.03", fillcolor="#fef9f6"] ;
607 -> 609 ;
610 [label="node #610\nsquared_error = -0.0\nsamples = 85\nvalue = 0.04", fillcolor="#fdf7f3"] ;
606 -> 610 ;
611 [label="node #611\nperson_income <= 35843.5\nsquared_error = 0.0\nsamples = 30\nvalue = 0.042", fillcolor="#fdf7f2"] ;
605 -> 611 ;
612 [label="node #612\ncredit_score <= 589.5\nsquared_error = 0.0\nsamples = 6\nvalue = 0.048", fillcolor="#fdf6f1"] ;
611 -> 612 ;
613 [label="node #613\nsquared_error = 0.0\nsamples = 1\nvalue = 0.04", fillcolor="#fdf7f3"] ;
612 -> 613 ;
614 [label="node #614\nsquared_error = -0.0\nsamples = 5\nvalue = 0.05", fillcolor="#fdf5f0"] ;
612 -> 614 ;
615 [label="node #615\nloan_intent_MEDICAL <= 0.5\nsquared_error = 0.0\nsamples = 24\nvalue = 0.04", fillcolor="#fdf7f3"] ;
611 -> 615 ;
616 [label="node #616\nsquared_error = -0.0\nsamples = 21\nvalue = 0.04", fillcolor="#fdf7f3"] ;
615 -> 616 ;
617 [label="node #617\nperson_education <= 1.5\nsquared_error = 0.0\nsamples = 3\nvalue = 0.043", fillcolor="#fdf7f2"] ;
615 -> 617 ;
618 [label="node #618\nsquared_error = 0.0\nsamples = 2\nvalue = 0.04", fillcolor="#fdf7f3"] ;
617 -> 618 ;
619 [label="node #619\nsquared_error = -0.0\nsamples = 1\nvalue = 0.05", fillcolor="#fdf5f0"] ;
617 -> 619 ;
620 [label="node #620\nperson_income <= 40253.5\nsquared_error = 0.0\nsamples = 25\nvalue = 0.045", fillcolor="#fdf6f1"] ;
602 -> 620 ;
621 [label="node #621\nsquared_error = 0.0\nsamples = 13\nvalue = 0.05", fillcolor="#fdf5f0"] ;
620 -> 621 ;
622 [label="node #622\nsquared_error = -0.0\nsamples = 12\nvalue = 0.04", fillcolor="#fdf7f3"] ;
620 -> 622 ;
623 [label="node #623\nloan_amnt <= 1552.5\nsquared_error = 0.0\nsamples = 64\nvalue = 0.034", fillcolor="#fef8f5"] ;
601 -> 623 ;
624 [label="node #624\nsquared_error = 0.0\nsamples = 37\nvalue = 0.03", fillcolor="#fef9f6"] ;
623 -> 624 ;
625 [label="node #625\nperson_emp_exp <= 1.5\nsquared_error = 0.0\nsamples = 27\nvalue = 0.04", fillcolor="#fdf7f3"] ;
623 -> 625 ;
626 [label="node #626\nloan_int_rate <= 9.985\nsquared_error = 0.0\nsamples = 4\nvalue = 0.038", fillcolor="#fef8f4"] ;
625 -> 626 ;
627 [label="node #627\nsquared_error = -0.0\nsamples = 3\nvalue = 0.04", fillcolor="#fdf7f3"] ;
626 -> 627 ;
628 [label="node #628\nsquared_error = -0.0\nsamples = 1\nvalue = 0.03", fillcolor="#fef9f6"] ;
626 -> 628 ;
629 [label="node #629\nsquared_error = -0.0\nsamples = 23\nvalue = 0.04", fillcolor="#fdf7f3"] ;
625 -> 629 ;
630 [label="node #630\nperson_income <= 36139.5\nsquared_error = 0.0\nsamples = 656\nvalue = 0.063", fillcolor="#fdf3ec"] ;
548 -> 630 ;
631 [label="node #631\nloan_amnt <= 2349.0\nsquared_error = 0.0\nsamples = 299\nvalue = 0.073", fillcolor="#fcf1e9"] ;
630 -> 631 ;
632 [label="node #632\nperson_income <= 30758.5\nsquared_error = 0.0\nsamples = 141\nvalue = 0.066", fillcolor="#fcf2eb"] ;
631 -> 632 ;
633 [label="node #633\nperson_income <= 26802.0\nsquared_error = 0.0\nsamples = 68\nvalue = 0.071", fillcolor="#fcf1ea"] ;
632 -> 633 ;
634 [label="node #634\ncredit_score <= 697.0\nsquared_error = 0.0\nsamples = 7\nvalue = 0.077", fillcolor="#fcf0e8"] ;
633 -> 634 ;
635 [label="node #635\nloan_amnt <= 1941.0\nsquared_error = 0.0\nsamples = 6\nvalue = 0.078", fillcolor="#fcf0e8"] ;
634 -> 635 ;
636 [label="node #636\nsquared_error = 0.0\nsamples = 1\nvalue = 0.07", fillcolor="#fcf2ea"] ;
635 -> 636 ;
637 [label="node #637\nsquared_error = 0.0\nsamples = 5\nvalue = 0.08", fillcolor="#fcf0e7"] ;
635 -> 637 ;
638 [label="node #638\nsquared_error = 0.0\nsamples = 1\nvalue = 0.07", fillcolor="#fcf2ea"] ;
634 -> 638 ;
639 [label="node #639\nloan_amnt <= 1961.5\nsquared_error = 0.0\nsamples = 61\nvalue = 0.07", fillcolor="#fcf2ea"] ;
633 -> 639 ;
640 [label="node #640\nsquared_error = 0.0\nsamples = 2\nvalue = 0.06", fillcolor="#fdf4ed"] ;
639 -> 640 ;
641 [label="node #641\nloan_amnt <= 2175.0\nsquared_error = 0.0\nsamples = 59\nvalue = 0.07", fillcolor="#fcf2ea"] ;
639 -> 641 ;
642 [label="node #642\ncb_person_cred_hist_length <= 11.5\nsquared_error = 0.0\nsamples = 57\nvalue = 0.07", fillcolor="#fcf2ea"] ;
641 -> 642 ;
643 [label="node #643\nsquared_error = 0.0\nsamples = 55\nvalue = 0.07", fillcolor="#fcf2ea"] ;
642 -> 643 ;
644 [label="node #644\nprevious_loan_defaults_on_file <= 0.5\nsquared_error = 0.0\nsamples = 2\nvalue = 0.075", fillcolor="#fcf1e8"] ;
642 -> 644 ;
645 [label="node #645\nsquared_error = 0.0\nsamples = 1\nvalue = 0.07", fillcolor="#fcf2ea"] ;
644 -> 645 ;
646 [label="node #646\nsquared_error = -0.0\nsamples = 1\nvalue = 0.08", fillcolor="#fcf0e7"] ;
644 -> 646 ;
647 [label="node #647\nloan_intent_MEDICAL <= 0.5\nsquared_error = 0.0\nsamples = 2\nvalue = 0.075", fillcolor="#fcf1e8"] ;
641 -> 647 ;
648 [label="node #648\nsquared_error = 0.0\nsamples = 1\nvalue = 0.07", fillcolor="#fcf2ea"] ;
647 -> 648 ;
649 [label="node #649\nsquared_error = -0.0\nsamples = 1\nvalue = 0.08", fillcolor="#fcf0e7"] ;
647 -> 649 ;
650 [label="node #650\nloan_amnt <= 2210.5\nsquared_error = 0.0\nsamples = 73\nvalue = 0.061", fillcolor="#fdf3ed"] ;
632 -> 650 ;
651 [label="node #651\nloan_amnt <= 2041.0\nsquared_error = 0.0\nsamples = 66\nvalue = 0.06", fillcolor="#fdf3ed"] ;
650 -> 651 ;
652 [label="node #652\nsquared_error = -0.0\nsamples = 56\nvalue = 0.06", fillcolor="#fdf4ed"] ;
651 -> 652 ;
653 [label="node #653\nloan_int_rate <= 10.945\nsquared_error = 0.0\nsamples = 10\nvalue = 0.063", fillcolor="#fdf3ec"] ;
651 -> 653 ;
654 [label="node #654\nperson_home_ownership_RENT <= 0.5\nsquared_error = 0.0\nsamples = 4\nvalue = 0.068", fillcolor="#fcf2eb"] ;
653 -> 654 ;
655 [label="node #655\nsquared_error = 0.0\nsamples = 1\nvalue = 0.06", fillcolor="#fdf4ed"] ;
654 -> 655 ;
656 [label="node #656\nsquared_error = 0.0\nsamples = 3\nvalue = 0.07", fillcolor="#fcf2ea"] ;
654 -> 656 ;
657 [label="node #657\nsquared_error = -0.0\nsamples = 6\nvalue = 0.06", fillcolor="#fdf4ed"] ;
653 -> 657 ;
658 [label="node #658\nperson_age <= 24.5\nsquared_error = 0.0\nsamples = 7\nvalue = 0.069", fillcolor="#fcf2ea"] ;
650 -> 658 ;
659 [label="node #659\nsquared_error = 0.0\nsamples = 1\nvalue = 0.06", fillcolor="#fdf4ed"] ;
658 -> 659 ;
660 [label="node #660\nsquared_error = 0.0\nsamples = 6\nvalue = 0.07", fillcolor="#fcf2ea"] ;
658 -> 660 ;
661 [label="node #661\nperson_income <= 28510.5\nsquared_error = 0.0\nsamples = 158\nvalue = 0.079", fillcolor="#fcf0e7"] ;
631 -> 661 ;
662 [label="node #662\nloan_amnt <= 2550.0\nsquared_error = 0.0\nsamples = 39\nvalue = 0.09", fillcolor="#fbeee4"] ;
661 -> 662 ;
663 [label="node #663\nperson_home_ownership_OTHER <= 0.5\nsquared_error = 0.0\nsamples = 38\nvalue = 0.089", fillcolor="#fbeee4"] ;
662 -> 663 ;
664 [label="node #664\nperson_income <= 28318.5\nsquared_error = 0.0\nsamples = 37\nvalue = 0.09", fillcolor="#fbeee4"] ;
663 -> 664 ;
665 [label="node #665\nsquared_error = 0.0\nsamples = 34\nvalue = 0.09", fillcolor="#fbeee4"] ;
664 -> 665 ;
666 [label="node #666\nloan_intent_MEDICAL <= 0.5\nsquared_error = 0.0\nsamples = 3\nvalue = 0.087", fillcolor="#fceee5"] ;
664 -> 666 ;
667 [label="node #667\nsquared_error = 0.0\nsamples = 2\nvalue = 0.09", fillcolor="#fbeee4"] ;
666 -> 667 ;
668 [label="node #668\nsquared_error = -0.0\nsamples = 1\nvalue = 0.08", fillcolor="#fcf0e7"] ;
666 -> 668 ;
669 [label="node #669\nsquared_error = 0.0\nsamples = 1\nvalue = 0.08", fillcolor="#fcf0e7"] ;
663 -> 669 ;
670 [label="node #670\nsquared_error = -0.0\nsamples = 1\nvalue = 0.1", fillcolor="#fbece1"] ;
662 -> 670 ;
671 [label="node #671\nperson_income <= 33365.0\nsquared_error = 0.0\nsamples = 119\nvalue = 0.076", fillcolor="#fcf0e8"] ;
661 -> 671 ;
672 [label="node #672\nperson_income <= 31680.0\nsquared_error = 0.0\nsamples = 76\nvalue = 0.079", fillcolor="#fcf0e7"] ;
671 -> 672 ;
673 [label="node #673\nsquared_error = -0.0\nsamples = 54\nvalue = 0.08", fillcolor="#fcf0e7"] ;
672 -> 673 ;
674 [label="node #674\nloan_amnt <= 2466.0\nsquared_error = 0.0\nsamples = 22\nvalue = 0.077", fillcolor="#fcf0e8"] ;
672 -> 674 ;
675 [label="node #675\nsquared_error = 0.0\nsamples = 6\nvalue = 0.07", fillcolor="#fcf2ea"] ;
674 -> 675 ;
676 [label="node #676\nsquared_error = -0.0\nsamples = 16\nvalue = 0.08", fillcolor="#fcf0e7"] ;
674 -> 676 ;
677 [label="node #677\nperson_education <= 3.5\nsquared_error = 0.0\nsamples = 43\nvalue = 0.07", fillcolor="#fcf2ea"] ;
671 -> 677 ;
678 [label="node #678\nloan_amnt <= 2560.0\nsquared_error = 0.0\nsamples = 42\nvalue = 0.07", fillcolor="#fcf2ea"] ;
677 -> 678 ;
679 [label="node #679\nsquared_error = -0.0\nsamples = 39\nvalue = 0.07", fillcolor="#fcf2ea"] ;
678 -> 679 ;
680 [label="node #680\nperson_gender <= 0.5\nsquared_error = 0.0\nsamples = 3\nvalue = 0.073", fillcolor="#fcf1e9"] ;
678 -> 680 ;
681 [label="node #681\nsquared_error = 0.0\nsamples = 2\nvalue = 0.07", fillcolor="#fcf2ea"] ;
680 -> 681 ;
682 [label="node #682\nsquared_error = -0.0\nsamples = 1\nvalue = 0.08", fillcolor="#fcf0e7"] ;
680 -> 682 ;
683 [label="node #683\nsquared_error = -0.0\nsamples = 1\nvalue = 0.08", fillcolor="#fcf0e7"] ;
677 -> 683 ;
684 [label="node #684\nloan_amnt <= 2146.0\nsquared_error = 0.0\nsamples = 357\nvalue = 0.055", fillcolor="#fdf4ee"] ;
630 -> 684 ;
685 [label="node #685\nperson_income <= 44737.0\nsquared_error = 0.0\nsamples = 167\nvalue = 0.049", fillcolor="#fdf6f0"] ;
684 -> 685 ;
686 [label="node #686\nperson_emp_exp <= 21.0\nsquared_error = 0.0\nsamples = 152\nvalue = 0.05", fillcolor="#fdf5f0"] ;
685 -> 686 ;
687 [label="node #687\nperson_income <= 36749.0\nsquared_error = 0.0\nsamples = 149\nvalue = 0.05", fillcolor="#fdf5f0"] ;
686 -> 687 ;
688 [label="node #688\nloan_intent_HOMEIMPROVEMENT <= 0.5\nsquared_error = 0.0\nsamples = 7\nvalue = 0.053", fillcolor="#fdf5ef"] ;
687 -> 688 ;
689 [label="node #689\nsquared_error = 0.0\nsamples = 5\nvalue = 0.05", fillcolor="#fdf5f0"] ;
688 -> 689 ;
690 [label="node #690\nsquared_error = -0.0\nsamples = 2\nvalue = 0.06", fillcolor="#fdf4ed"] ;
688 -> 690 ;
691 [label="node #691\nperson_education <= 3.5\nsquared_error = 0.0\nsamples = 142\nvalue = 0.05", fillcolor="#fdf5f0"] ;
687 -> 691 ;
692 [label="node #692\nsquared_error = 0.0\nsamples = 140\nvalue = 0.05", fillcolor="#fdf5f0"] ;
691 -> 692 ;
693 [label="node #693\nloan_intent_MEDICAL <= 0.5\nsquared_error = 0.0\nsamples = 2\nvalue = 0.045", fillcolor="#fdf6f2"] ;
691 -> 693 ;
694 [label="node #694\nsquared_error = 0.0\nsamples = 1\nvalue = 0.05", fillcolor="#fdf5f0"] ;
693 -> 694 ;
695 [label="node #695\nsquared_error = 0.0\nsamples = 1\nvalue = 0.04", fillcolor="#fdf7f3"] ;
693 -> 695 ;
696 [label="node #696\nperson_home_ownership_MORTGAGE <= 0.5\nsquared_error = 0.0\nsamples = 3\nvalue = 0.057", fillcolor="#fdf4ee"] ;
686 -> 696 ;
697 [label="node #697\nsquared_error = 0.0\nsamples = 1\nvalue = 0.05", fillcolor="#fdf5f0"] ;
696 -> 697 ;
698 [label="node #698\nsquared_error = 0.0\nsamples = 2\nvalue = 0.06", fillcolor="#fdf4ed"] ;
696 -> 698 ;
699 [label="node #699\nsquared_error = 0.0\nsamples = 15\nvalue = 0.04", fillcolor="#fdf7f3"] ;
685 -> 699 ;
700 [label="node #700\nperson_income <= 38429.5\nsquared_error = 0.0\nsamples = 190\nvalue = 0.06", fillcolor="#fdf4ed"] ;
684 -> 700 ;
701 [label="node #701\nloan_amnt <= 2416.0\nsquared_error = 0.0\nsamples = 50\nvalue = 0.065", fillcolor="#fcf3ec"] ;
700 -> 701 ;
702 [label="node #702\nperson_income <= 36907.0\nsquared_error = 0.0\nsamples = 29\nvalue = 0.062", fillcolor="#fdf3ec"] ;
701 -> 702 ;
703 [label="node #703\nloan_amnt <= 2345.0\nsquared_error = 0.0\nsamples = 9\nvalue = 0.066", fillcolor="#fcf2eb"] ;
702 -> 703 ;
704 [label="node #704\nsquared_error = -0.0\nsamples = 4\nvalue = 0.06", fillcolor="#fdf4ed"] ;
703 -> 704 ;
705 [label="node #705\nsquared_error = -0.0\nsamples = 5\nvalue = 0.07", fillcolor="#fcf2ea"] ;
703 -> 705 ;
706 [label="node #706\nsquared_error = -0.0\nsamples = 20\nvalue = 0.06", fillcolor="#fdf4ed"] ;
702 -> 706 ;
707 [label="node #707\nloan_amnt <= 2486.5\nsquared_error = 0.0\nsamples = 21\nvalue = 0.07", fillcolor="#fcf2ea"] ;
701 -> 707 ;
708 [label="node #708\nperson_education <= 1.5\nsquared_error = 0.0\nsamples = 3\nvalue = 0.067", fillcolor="#fcf2eb"] ;
707 -> 708 ;
709 [label="node #709\nsquared_error = 0.0\nsamples = 1\nvalue = 0.06", fillcolor="#fdf4ed"] ;
708 -> 709 ;
710 [label="node #710\nsquared_error = 0.0\nsamples = 2\nvalue = 0.07", fillcolor="#fcf2ea"] ;
708 -> 710 ;
711 [label="node #711\nsquared_error = -0.0\nsamples = 18\nvalue = 0.07", fillcolor="#fcf2ea"] ;
707 -> 711 ;
712 [label="node #712\nperson_income <= 45243.0\nsquared_error = 0.0\nsamples = 140\nvalue = 0.058", fillcolor="#fdf4ed"] ;
700 -> 712 ;
713 [label="node #713\nloan_amnt <= 2426.5\nsquared_error = 0.0\nsamples = 126\nvalue = 0.059", fillcolor="#fdf4ed"] ;
712 -> 713 ;
714 [label="node #714\nperson_income <= 43441.0\nsquared_error = 0.0\nsamples = 42\nvalue = 0.057", fillcolor="#fdf4ee"] ;
713 -> 714 ;
715 [label="node #715\nloan_amnt <= 2317.0\nsquared_error = 0.0\nsamples = 33\nvalue = 0.059", fillcolor="#fdf4ed"] ;
714 -> 715 ;
716 [label="node #716\nperson_income <= 40436.0\nsquared_error = 0.0\nsamples = 8\nvalue = 0.056", fillcolor="#fdf4ee"] ;
715 -> 716 ;
717 [label="node #717\nsquared_error = -0.0\nsamples = 5\nvalue = 0.06", fillcolor="#fdf4ed"] ;
716 -> 717 ;
718 [label="node #718\nsquared_error = 0.0\nsamples = 3\nvalue = 0.05", fillcolor="#fdf5f0"] ;
716 -> 718 ;
719 [label="node #719\nsquared_error = -0.0\nsamples = 25\nvalue = 0.06", fillcolor="#fdf4ed"] ;
715 -> 719 ;
720 [label="node #720\nsquared_error = 0.0\nsamples = 9\nvalue = 0.05", fillcolor="#fdf5f0"] ;
714 -> 720 ;
721 [label="node #721\nloan_amnt <= 2588.5\nsquared_error = 0.0\nsamples = 84\nvalue = 0.06", fillcolor="#fdf3ed"] ;
713 -> 721 ;
722 [label="node #722\nsquared_error = 0.0\nsamples = 76\nvalue = 0.06", fillcolor="#fdf4ed"] ;
721 -> 722 ;
723 [label="node #723\nperson_income <= 40806.5\nsquared_error = 0.0\nsamples = 8\nvalue = 0.064", fillcolor="#fcf3ec"] ;
721 -> 723 ;
724 [label="node #724\nsquared_error = 0.0\nsamples = 3\nvalue = 0.07", fillcolor="#fcf2ea"] ;
723 -> 724 ;
725 [label="node #725\nsquared_error = -0.0\nsamples = 5\nvalue = 0.06", fillcolor="#fdf4ed"] ;
723 -> 725 ;
726 [label="node #726\nloan_int_rate <= 9.81\nsquared_error = 0.0\nsamples = 14\nvalue = 0.051", fillcolor="#fdf5f0"] ;
712 -> 726 ;
727 [label="node #727\nloan_amnt <= 2450.0\nsquared_error = 0.0\nsamples = 3\nvalue = 0.057", fillcolor="#fdf4ee"] ;
726 -> 727 ;
728 [label="node #728\nsquared_error = 0.0\nsamples = 1\nvalue = 0.05", fillcolor="#fdf5f0"] ;
727 -> 728 ;
729 [label="node #729\nsquared_error = 0.0\nsamples = 2\nvalue = 0.06", fillcolor="#fdf4ed"] ;
727 -> 729 ;
730 [label="node #730\nsquared_error = -0.0\nsamples = 11\nvalue = 0.05", fillcolor="#fdf5f0"] ;
726 -> 730 ;
731 [label="node #731\nperson_income <= 35419.5\nsquared_error = 0.0\nsamples = 1444\nvalue = 0.096", fillcolor="#fbede2"] ;
547 -> 731 ;
732 [label="node #732\nloan_amnt <= 3475.0\nsquared_error = 0.0\nsamples = 481\nvalue = 0.113", fillcolor="#fbe9dd"] ;
731 -> 732 ;
733 [label="node #733\nperson_income <= 31801.0\nsquared_error = 0.0\nsamples = 213\nvalue = 0.096", fillcolor="#fbede2"] ;
732 -> 733 ;
734 [label="node #734\nperson_income <= 28561.5\nsquared_error = 0.0\nsamples = 137\nvalue = 0.1", fillcolor="#fbece1"] ;
733 -> 734 ;
735 [label="node #735\nloan_amnt <= 2877.5\nsquared_error = 0.0\nsamples = 25\nvalue = 0.11", fillcolor="#fbeade"] ;
734 -> 735 ;
736 [label="node #736\ncredit_score <= 580.0\nsquared_error = 0.0\nsamples = 3\nvalue = 0.103", fillcolor="#fbebe0"] ;
735 -> 736 ;
737 [label="node #737\nsquared_error = 0.0\nsamples = 1\nvalue = 0.11", fillcolor="#fbeade"] ;
736 -> 737 ;
738 [label="node #738\nsquared_error = 0.0\nsamples = 2\nvalue = 0.1", fillcolor="#fbece1"] ;
736 -> 738 ;
739 [label="node #739\nloan_amnt <= 3153.0\nsquared_error = 0.0\nsamples = 22\nvalue = 0.11", fillcolor="#fbeade"] ;
735 -> 739 ;
740 [label="node #740\nsquared_error = -0.0\nsamples = 19\nvalue = 0.11", fillcolor="#fbeade"] ;
739 -> 740 ;
741 [label="node #741\nperson_income <= 28016.5\nsquared_error = 0.0\nsamples = 3\nvalue = 0.113", fillcolor="#fbe9dd"] ;
739 -> 741 ;
742 [label="node #742\nsquared_error = 0.0\nsamples = 1\nvalue = 0.12", fillcolor="#fae8db"] ;
741 -> 742 ;
743 [label="node #743\nsquared_error = 0.0\nsamples = 2\nvalue = 0.11", fillcolor="#fbeade"] ;
741 -> 743 ;
744 [label="node #744\nloan_amnt <= 2925.0\nsquared_error = 0.0\nsamples = 112\nvalue = 0.098", fillcolor="#fbece2"] ;
734 -> 744 ;
745 [label="node #745\nperson_income <= 29498.5\nsquared_error = 0.0\nsamples = 26\nvalue = 0.09", fillcolor="#fbeee4"] ;
744 -> 745 ;
746 [label="node #746\nsquared_error = 0.0\nsamples = 1\nvalue = 0.1", fillcolor="#fbece1"] ;
745 -> 746 ;
747 [label="node #747\nsquared_error = -0.0\nsamples = 25\nvalue = 0.09", fillcolor="#fbeee4"] ;
745 -> 747 ;
748 [label="node #748\nloan_amnt <= 3224.0\nsquared_error = 0.0\nsamples = 86\nvalue = 0.1", fillcolor="#fbece1"] ;
744 -> 748 ;
749 [label="node #749\ncredit_score <= 508.5\nsquared_error = 0.0\nsamples = 81\nvalue = 0.1", fillcolor="#fbece1"] ;
748 -> 749 ;
750 [label="node #750\nsquared_error = 0.0\nsamples = 1\nvalue = 0.11", fillcolor="#fbeade"] ;
749 -> 750 ;
751 [label="node #751\nperson_income <= 31590.0\nsquared_error = 0.0\nsamples = 80\nvalue = 0.1", fillcolor="#fbece1"] ;
749 -> 751 ;
752 [label="node #752\nsquared_error = 0.0\nsamples = 78\nvalue = 0.1", fillcolor="#fbece1"] ;
751 -> 752 ;
753 [label="node #753\nloan_int_rate <= 11.025\nsquared_error = 0.0\nsamples = 2\nvalue = 0.095", fillcolor="#fbede2"] ;
751 -> 753 ;
754 [label="node #754\nsquared_error = 0.0\nsamples = 1\nvalue = 0.09", fillcolor="#fbeee4"] ;
753 -> 754 ;
755 [label="node #755\nsquared_error = 0.0\nsamples = 1\nvalue = 0.1", fillcolor="#fbece1"] ;
753 -> 755 ;
756 [label="node #756\nloan_intent_EDUCATION <= 0.5\nsquared_error = 0.0\nsamples = 5\nvalue = 0.108", fillcolor="#fbeadf"] ;
748 -> 756 ;
757 [label="node #757\nsquared_error = -0.0\nsamples = 4\nvalue = 0.11", fillcolor="#fbeade"] ;
756 -> 757 ;
758 [label="node #758\nsquared_error = 0.0\nsamples = 1\nvalue = 0.1", fillcolor="#fbece1"] ;
756 -> 758 ;
759 [label="node #759\nloan_amnt <= 2920.0\nsquared_error = 0.0\nsamples = 76\nvalue = 0.089", fillcolor="#fbeee4"] ;
733 -> 759 ;
760 [label="node #760\nsquared_error = 0.0\nsamples = 11\nvalue = 0.08", fillcolor="#fcf0e7"] ;
759 -> 760 ;
761 [label="node #761\nloan_amnt <= 3235.5\nsquared_error = 0.0\nsamples = 65\nvalue = 0.091", fillcolor="#fbeee4"] ;
759 -> 761 ;
762 [label="node #762\nperson_income <= 35307.0\nsquared_error = 0.0\nsamples = 55\nvalue = 0.09", fillcolor="#fbeee4"] ;
761 -> 762 ;
763 [label="node #763\nsquared_error = 0.0\nsamples = 53\nvalue = 0.09", fillcolor="#fbeee4"] ;
762 -> 763 ;
764 [label="node #764\nsquared_error = -0.0\nsamples = 2\nvalue = 0.08", fillcolor="#fcf0e7"] ;
762 -> 764 ;
765 [label="node #765\nloan_intent_MEDICAL <= 0.5\nsquared_error = 0.0\nsamples = 10\nvalue = 0.097", fillcolor="#fbece2"] ;
761 -> 765 ;
766 [label="node #766\nloan_intent_HOMEIMPROVEMENT <= 0.5\nsquared_error = 0.0\nsamples = 8\nvalue = 0.099", fillcolor="#fbece1"] ;
765 -> 766 ;
767 [label="node #767\nsquared_error = 0.0\nsamples = 5\nvalue = 0.1", fillcolor="#fbece1"] ;
766 -> 767 ;
768 [label="node #768\nloan_amnt <= 3285.5\nsquared_error = 0.0\nsamples = 3\nvalue = 0.097", fillcolor="#fbede2"] ;
766 -> 768 ;
769 [label="node #769\nsquared_error = 0.0\nsamples = 1\nvalue = 0.09", fillcolor="#fbeee4"] ;
768 -> 769 ;
770 [label="node #770\nsquared_error = -0.0\nsamples = 2\nvalue = 0.1", fillcolor="#fbece1"] ;
768 -> 770 ;
771 [label="node #771\nsquared_error = 0.0\nsamples = 2\nvalue = 0.09", fillcolor="#fbeee4"] ;
765 -> 771 ;
772 [label="node #772\nperson_income <= 29630.5\nsquared_error = 0.0\nsamples = 268\nvalue = 0.126", fillcolor="#fae7d9"] ;
732 -> 772 ;
773 [label="node #773\nloan_amnt <= 3687.5\nsquared_error = 0.0\nsamples = 64\nvalue = 0.14", fillcolor="#f9e4d5"] ;
772 -> 773 ;
774 [label="node #774\nperson_income <= 28065.5\nsquared_error = 0.0\nsamples = 19\nvalue = 0.126", fillcolor="#fae7d9"] ;
773 -> 774 ;
775 [label="node #775\nperson_income <= 26737.0\nsquared_error = 0.0\nsamples = 9\nvalue = 0.131", fillcolor="#fae6d8"] ;
774 -> 775 ;
776 [label="node #776\nsquared_error = 0.0\nsamples = 1\nvalue = 0.14", fillcolor="#f9e4d5"] ;
775 -> 776 ;
777 [label="node #777\nsquared_error = 0.0\nsamples = 8\nvalue = 0.13", fillcolor="#fae6d8"] ;
775 -> 777 ;
778 [label="node #778\nperson_education <= 0.5\nsquared_error = 0.0\nsamples = 10\nvalue = 0.121", fillcolor="#fae8db"] ;
774 -> 778 ;
779 [label="node #779\nsquared_error = 0.0\nsamples = 1\nvalue = 0.13", fillcolor="#fae6d8"] ;
778 -> 779 ;
780 [label="node #780\nsquared_error = -0.0\nsamples = 9\nvalue = 0.12", fillcolor="#fae8db"] ;
778 -> 780 ;
781 [label="node #781\nperson_income <= 27634.0\nsquared_error = 0.0\nsamples = 45\nvalue = 0.146", fillcolor="#f9e3d3"] ;
773 -> 781 ;
782 [label="node #782\nloan_amnt <= 3912.5\nsquared_error = 0.0\nsamples = 23\nvalue = 0.15", fillcolor="#f9e2d2"] ;
781 -> 782 ;
783 [label="node #783\nsquared_error = 0.0\nsamples = 4\nvalue = 0.14", fillcolor="#f9e4d5"] ;
782 -> 783 ;
784 [label="node #784\nloan_amnt <= 4110.0\nsquared_error = 0.0\nsamples = 19\nvalue = 0.152", fillcolor="#f9e2d1"] ;
782 -> 784 ;
785 [label="node #785\nsquared_error = 0.0\nsamples = 15\nvalue = 0.15", fillcolor="#f9e2d2"] ;
784 -> 785 ;
786 [label="node #786\nsquared_error = -0.0\nsamples = 4\nvalue = 0.16", fillcolor="#f9e0cf"] ;
784 -> 786 ;
787 [label="node #787\nloan_amnt <= 4095.0\nsquared_error = 0.0\nsamples = 22\nvalue = 0.142", fillcolor="#f9e4d4"] ;
781 -> 787 ;
788 [label="node #788\nsquared_error = -0.0\nsamples = 15\nvalue = 0.14", fillcolor="#f9e4d5"] ;
787 -> 788 ;
789 [label="node #789\nperson_education <= 1.5\nsquared_error = 0.0\nsamples = 7\nvalue = 0.147", fillcolor="#f9e3d3"] ;
787 -> 789 ;
790 [label="node #790\nsquared_error = 0.0\nsamples = 2\nvalue = 0.14", fillcolor="#f9e4d5"] ;
789 -> 790 ;
791 [label="node #791\nsquared_error = 0.0\nsamples = 5\nvalue = 0.15", fillcolor="#f9e2d2"] ;
789 -> 791 ;
792 [label="node #792\nloan_amnt <= 3899.0\nsquared_error = 0.0\nsamples = 204\nvalue = 0.121", fillcolor="#fae8db"] ;
772 -> 792 ;
793 [label="node #793\nperson_income <= 32594.0\nsquared_error = 0.0\nsamples = 67\nvalue = 0.114", fillcolor="#fbe9dd"] ;
792 -> 793 ;
794 [label="node #794\nloan_amnt <= 3539.0\nsquared_error = 0.0\nsamples = 45\nvalue = 0.118", fillcolor="#fae9dc"] ;
793 -> 794 ;
795 [label="node #795\nperson_income <= 30703.0\nsquared_error = 0.0\nsamples = 17\nvalue = 0.115", fillcolor="#fae9dd"] ;
794 -> 795 ;
796 [label="node #796\nsquared_error = -0.0\nsamples = 8\nvalue = 0.12", fillcolor="#fae8db"] ;
795 -> 796 ;
797 [label="node #797\nsquared_error = -0.0\nsamples = 9\nvalue = 0.11", fillcolor="#fbeade"] ;
795 -> 797 ;
798 [label="node #798\nperson_income <= 32540.5\nsquared_error = 0.0\nsamples = 28\nvalue = 0.12", fillcolor="#fae8db"] ;
794 -> 798 ;
799 [label="node #799\nsquared_error = -0.0\nsamples = 26\nvalue = 0.12", fillcolor="#fae8db"] ;
798 -> 799 ;
800 [label="node #800\nperson_gender <= 0.5\nsquared_error = 0.0\nsamples = 2\nvalue = 0.115", fillcolor="#fae9dd"] ;
798 -> 800 ;
801 [label="node #801\nsquared_error = 0.0\nsamples = 1\nvalue = 0.11", fillcolor="#fbeade"] ;
800 -> 801 ;
802 [label="node #802\nsquared_error = 0.0\nsamples = 1\nvalue = 0.12", fillcolor="#fae8db"] ;
800 -> 802 ;
803 [label="node #803\nperson_age <= 23.0\nsquared_error = 0.0\nsamples = 22\nvalue = 0.105", fillcolor="#fbebdf"] ;
793 -> 803 ;
804 [label="node #804\nperson_home_ownership_OTHER <= 0.5\nsquared_error = 0.0\nsamples = 10\nvalue = 0.109", fillcolor="#fbeade"] ;
803 -> 804 ;
805 [label="node #805\nsquared_error = -0.0\nsamples = 9\nvalue = 0.11", fillcolor="#fbeade"] ;
804 -> 805 ;
806 [label="node #806\nsquared_error = 0.0\nsamples = 1\nvalue = 0.1", fillcolor="#fbece1"] ;
804 -> 806 ;
807 [label="node #807\nloan_amnt <= 3590.5\nsquared_error = 0.0\nsamples = 12\nvalue = 0.102", fillcolor="#fbece0"] ;
803 -> 807 ;
808 [label="node #808\nsquared_error = -0.0\nsamples = 9\nvalue = 0.1", fillcolor="#fbece1"] ;
807 -> 808 ;
809 [label="node #809\nperson_education <= 1.5\nsquared_error = 0.0\nsamples = 3\nvalue = 0.107", fillcolor="#fbebdf"] ;
807 -> 809 ;
810 [label="node #810\nsquared_error = 0.0\nsamples = 1\nvalue = 0.1", fillcolor="#fbece1"] ;
809 -> 810 ;
811 [label="node #811\nsquared_error = 0.0\nsamples = 2\nvalue = 0.11", fillcolor="#fbeade"] ;
809 -> 811 ;
812 [label="node #812\nperson_income <= 32038.5\nsquared_error = 0.0\nsamples = 137\nvalue = 0.125", fillcolor="#fae7da"] ;
792 -> 812 ;
813 [label="node #813\nloan_amnt <= 4103.5\nsquared_error = 0.0\nsamples = 62\nvalue = 0.131", fillcolor="#fae6d8"] ;
812 -> 813 ;
814 [label="node #814\nsquared_error = 0.0\nsamples = 54\nvalue = 0.13", fillcolor="#fae6d8"] ;
813 -> 814 ;
815 [label="node #815\nperson_income <= 30834.0\nsquared_error = 0.0\nsamples = 8\nvalue = 0.138", fillcolor="#fae5d6"] ;
813 -> 815 ;
816 [label="node #816\nsquared_error = 0.0\nsamples = 6\nvalue = 0.14", fillcolor="#f9e4d5"] ;
815 -> 816 ;
817 [label="node #817\nsquared_error = 0.0\nsamples = 2\nvalue = 0.13", fillcolor="#fae6d8"] ;
815 -> 817 ;
818 [label="node #818\nperson_income <= 34781.5\nsquared_error = 0.0\nsamples = 75\nvalue = 0.12", fillcolor="#fae8db"] ;
812 -> 818 ;
819 [label="node #819\nloan_amnt <= 4193.0\nsquared_error = 0.0\nsamples = 64\nvalue = 0.121", fillcolor="#fae8db"] ;
818 -> 819 ;
820 [label="node #820\nloan_amnt <= 4025.5\nsquared_error = 0.0\nsamples = 53\nvalue = 0.12", fillcolor="#fae8db"] ;
819 -> 820 ;
821 [label="node #821\nsquared_error = -0.0\nsamples = 49\nvalue = 0.12", fillcolor="#fae8db"] ;
820 -> 821 ;
822 [label="node #822\nloan_amnt <= 4069.0\nsquared_error = 0.0\nsamples = 4\nvalue = 0.122", fillcolor="#fae8da"] ;
820 -> 822 ;
823 [label="node #823\nsquared_error = 0.0\nsamples = 1\nvalue = 0.13", fillcolor="#fae6d8"] ;
822 -> 823 ;
824 [label="node #824\nsquared_error = -0.0\nsamples = 3\nvalue = 0.12", fillcolor="#fae8db"] ;
822 -> 824 ;
825 [label="node #825\nperson_income <= 34259.0\nsquared_error = 0.0\nsamples = 11\nvalue = 0.126", fillcolor="#fae7d9"] ;
